629 100
really -0.0834993 -0.0466964 -0.0634806 0.0760157 0.0993255 0.0764431 0.0814695 -0.0581851 0.015171 -0.019351 0.0602641 0.0196152 0.067252 -0.00661659 -0.0499905 -0.0420631 0.0243123 -0.0282022 0.0684804 0.0131528 -0.0210913 -0.0677646 -0.0280819 0.0858432 -0.026042 0.0190101 0.00423099 -0.0977202 0.0439451 -0.0254055 -0.00620821 0.0227994 -0.00169599 -0.0859123 0.0870333 0.0516704 -0.0237758 -0.0298602 -0.0539027 -0.064332 -0.0586146 -0.00346835 0.0419498 0.0180473 0.0510643 -0.0574483 0.020074 -0.0709676 0.0224052 0.0766299 -0.0190457 -0.0741178 -0.0212417 -0.0422821 0.0564048 -0.0661392 0.0517363 0.0367988 0.0447934 -0.0349825 0.0504296 0.0243938 0.0679405 -0.0236007 -0.0294914 0.0196752 0.0331946 0.0276271 0.0200498 -0.0801024 0.053614 -0.0632425 -0.0183236 -0.057042 0.0747875 0.00152774 -0.0281599 -0.0227416 0.0284312 0.0936712 -0.0133368 0.0274685 -0.0359531 -0.000335279 -0.0485689 0.00457687 -0.0201908 -0.0117882 -0.0625072 -0.0142096 0.0266463 -0.0693343 -0.0826449 0.0824186 -0.0488443 -0.0831028 0.00372484 0.032597 0.0110351 0.0649995
all -0.0535099 0.0906203 0.133176 0.118465 0.164403 0.0246817 -0.023211 0.198276 -0.0274087 -0.0261881 -0.198369 0.0633534 -0.106376 0.0782411 0.0093766 -0.0571833 -0.110535 -0.124426 -0.0982143 -0.000335734 -0.0170797 -0.069117 0.00757088 -0.038099 0.066163 -0.0179309 -0.010674 -0.0329739 0.0972371 0.0859095 0.0393977 0.0569676 0.0625977 0.0479782 0.0308229 -0.01754 0.122787 -0.0361331 -0.00612452 0.0527595 -0.197244 0.0697622 -0.0746188 -0.0237782 0.00112475 0.0216353 0.00752942 0.0874052 0.112591 0.0285109 0.0486891 0.0501673 -0.24832 -0.0301672 0.0473093 -0.126671 -0.0746861 -0.0297993 -0.00908279 -0.107525 -0.19547 0.0705334 0.133155 -0.0782916 -0.266139 -0.108313 -0.0479877 0.0295935 -0.0423647 -0.0938156 0.228074 0.00181093 -0.0340854 0.0178961 0.045294 -0.0699972 -0.0376409 0.0849332 -0.0323103 0.162247 0.205374 -0.0103551 0.0317576 0.0338484 -0.0893865 -0.0923199 -0.0924841 0.0279917 0.088624 -0.160786 -0.0404843 0.0519415 -0.117266 -0.0439901 -0.0940783 0.00291281 0.0336403 0.171973 0.12805 -0.0410926
managed 0.0301479 -0.0150637 -0.0353327 0.0648277 -0.00318306 -0.0686859 -0.0215964 0.0213715 -0.0881528 -0.0063827 0.029882 0.0821532 0.055295 -0.0432745 -0.033761 0.0621819 0.0159154 0.0597038 -0.0109738 -0.0386431 0.0966633 0.0476863 -0.0204266 -0.0547456 -0.109717 0.0150076 -0.00501989 0.0527091 0.0304514 -0.0196121 -0.102039 0.0259338 0.0762425 -0.0117846 -0.0403586 0.0418851 -0.0200143 -0.00831358 0.000827867 -0.0512973 -0.0936294 0.023553 -0.0287436 -0.0206344 -0.120335 0.00450526 0.0682004 0.0179716 -0.0452954 -0.0694196 0.0103336 0.046379 0.0799664 -0.0435182 -0.0442667 0.046617 0.0174611 0.0555772 0.0371749 0.0608437 0.0595527 0.0946815 0.0318201 0.104653 -0.0744503 -0.0013002 -0.0618711 0.10637 0.0384759 0.0933829 -0.0279772 -0.0337753 0.0263857 0.0253749 0.00130909 -0.0080647 0.0674679 0.0279011 -0.0512847 0.0890481 -0.0118581 -0.00647412 0.0532295 0.0235644 -0.0224478 -0.0431591 0.0336874 0.0600649 0.0358269 0.0875906 0.011427 0.0181743 0.0387029 0.00915536 0.0575022 0.0718721 0.0928485 -0.00216689 -0.0446212 -0.102193
chain -0.0399456 -0.0847652 0.0969486 -0.0691463 0.0614339 0.0747521 -0.0376271 -0.0671375 0.0443722 -0.0395288 0.0870446 -0.0621733 -0.0600545 -0.0254888 -0.00642253 -0.00678152 -0.0153565 -0.0868426 0.116029 0.00198764 -0.0190848 0.0925462 -0.117984 -0.000485913 0.00588823 0.0562959 -0.0971698 -0.0452326 -0.0797529 -0.0570354 -0.00486389 -0.026746 -0.0537153 -0.033717 0.0995512 -0.0469749 -0.0478611 0.072181 0.0220344 0.0259454 0.00731393 -0.0522087 0.0689599 -0.0587313 -0.020259 0.0218838 -0.00595757 -0.0734806 -0.117189 0.000273355 0.0382302 0.0799909 0.0599529 0.0367434 -0.0213857 -0.0894395 0.098574 -0.0513733 -0.0638214 0.0432466 -0.0187661 0.0688497 -0.0437367 -0.0177182 0.0311276 0.08422 0.0464243 0.0190008 -0.0512041 0.0167482 0.0499427 -0.0658439 0.0440787 -0.0790629 -0.0858051 0.100201 0.0473825 -0.0566402 -0.0462457 0.0341821 0.0471243 -0.0194826 0.0476557 0.125206 0.00103513 0.058951 0.103208 0.0052675 0.0537694 -0.0545608 0.0500916 0.0295463 0.0698379 0.0799535 0.0803882 0.124331 0.0702228 -0.0790214 -0.108377 -0.0140776
 0.10108 0.0674521 0.00765718 -0.0344527 -0.0374878 0.00621785 -0.0684404 0.164969 0.116262 0.000818943 -0.140867 -0.0474267 -0.00360228 -0.0605797 0.0825489 -0.0557342 -0.124546 -0.170372 -0.177819 0.0159434 0.0839057 -0.0961662 -0.176641 0.108732 -0.150568 0.00714232 -0.0262032 0.0317343 -0.206074 0.145854 0.078006 -0.010966 -0.0597669 -0.0326647 0.0907369 0.0260839 -0.00825885 -0.186835 0.0858141 0.0450857 -0.193612 -0.0535049 0.139571 -0.0390876 -0.10571 -0.084808 0.0606488 0.197541 0.100498 -0.0153754 0.123862 -0.0153465 -0.108278 0.0349911 -0.0420361 -0.141414 0.00719076 -0.0427635 -0.0358243 0.0434485 0.0418683 0.0242981 0.0702944 -0.0528399 -0.0328984 -0.125841 0.161719 0.0597356 0.0664961 0.0742935 -0.0300378 -0.0463087 0.00393442 0.038495 -0.0934763 0.118819 -0.136389 0.0313676 -0.101737 -0.0210024 0.116615 0.111169 -0.112867 0.158906 -0.132281 -0.15491 0.048488 -0.0600691 0.0353146 -0.0414126 -0.00397022 0.0502551 -0.0689503 -0.0545764 0.0265015 -0.0209571 -0.0497752 -0.125273 0.0254598 0.0187563
fulcrum 0.0728983 0.0169627 0.0772135 0.10444 -0.0135987 0.00117352 -0.0365405 -0.0278003 -0.0731221 0.0353057 -0.0378832 -0.00920867 -0.108747 0.0419026 0.0209897 -0.0406226 0.0422745 0.00549722 0.0632923 0.0364983 0.080934 -0.0318102 0.0371571 0.0951281 -0.101963 -6.10446e-07 0.0639939 -0.0536829 -0.0379047 -0.0518733 0.0970953 -0.0944751 -0.00537312 -0.0992831 0.0194738 -0.0494039 0.0112794 -0.0421637 0.0803317 0.012555 -0.0181148 -0.0495245 0.0109605 -0.106486 0.061561 0.0186481 -0.0696284 0.0695944 -0.0582805 0.0553943 -0.0348938 -0.0343042 -0.00991159 -0.0127255 -0.0907613 0.0490658 0.00832696 0.0430479 0.0779567 -0.0368102 -0.0157078 0.0322952 -0.0226534 0.0472808 -0.0174226 0.048043 -0.068298 -0.0148324 0.0619636 0.0160603 -0.0212445 -0.0783224 -0.0882253 0.0628106 0.0156519 0.0577796 0.00430532 0.0549201 0.0394732 -0.0821232 -0.0435898 0.0425475 0.0845568 -0.0519794 -0.100013 -0.0815713 0.0336742 -0.0289762 0.0415188 -0.0234099 0.023584 -0.00658201 -0.05332 0.0443093 0.0619909 0.0560547 0.064662 0.0412355 -0.0179739 -0.0972817
knelt -0.0539929 0.0593692 -0.0591647 0.0324463 0.0368216 -0.0346034 -0.0843945 0.034021 -0.0152152 -0.0352253 0.0228844 0.00832636 0.027375 0.007994 0.110088 -0.0570748 0.109636 -0.0964656 0.0540398 -0.0685844 -0.0154498 -0.0948246 0.0228291 -0.0346693 -0.133795 -0.0448382 -0.0615697 0.0581221 0.00354037 0.0852765 0.0599481 -0.081804 0.00349975 -0.0559855 0.00391182 0.118285 0.0851315 -0.0864182 0.0912779 -0.051711 -0.121087 -0.0329741 0.041151 -0.0455365 -0.0388106 0.0090476 0.0038341 0.00282296 0.0292925 0.00136037 0.116192 0.031048 -0.00180579 0.0917139 0.0190145 -0.0888322 0.0810325 0.079819 0.00599172 0.134981 0.0945216 -0.0810334 -0.0191829 0.0358372 -0.0619213 0.0725267 0.0800745 -0.0545772 -0.0817632 0.0649323 -0.0492739 -0.094779 -0.0504033 -0.00833692 -0.0828665 -0.0701934 -0.0103987 -0.0793633 0.0828238 0.0582387 0.0830862 -0.0591715 -0.0402176 -0.107027 0.0481644 0.0134856 0.095426 0.103315 -0.018857 -0.0686512 -0.0214223 -0.100419 -0.133666 0.0415562 -0.0986682 -0.0589364 0.0231966 0.0786493 0.102161 -0.0386381
go 0.0223809 -0.0810495 -0.0851764 -0.111968 -0.0469902 0.0571131 -0.05414 0.0729699 0.104788 0.000490569 0.00555437 0.00437535 -0.0525766 -0.0363372 -0.0797011 -0.0243201 -0.0902686 0.0313475 -0.019744 0.0152085 0.0629188 -0.0411115 0.0423694 -0.0803771 0.129119 -0.0328075 0.0316485 -0.00799488 -0.0389724 0.037002 0.0317405 0.0537401 0.0327138 0.0933568 -0.0127994 0.0864519 0.0758235 0.00222256 -0.130667 0.107119 0.00535013 -0.0325122 0.0236244 0.118394 -0.0244025 0.0195787 -0.0245453 -0.0607632 0.0538903 0.0276584 -0.0591358 0.0686943 -0.0753072 -0.024496 0.0453682 0.0718398 -0.0635765 -0.0580486 0.0479795 0.0899752 0.0164959 -0.0224372 0.0487723 -0.0258921 0.10081 0.0832883 -0.00230311 0.0456018 0.0412464 0.040164 -0.102662 -0.0751177 0.0136372 -0.11013 -0.0295727 0.0165401 -0.0015422 0.0452886 0.0765995 0.000256683 0.0595684 -0.0327722 0.00247649 0.021773 -0.0439663 0.0893052 -0.0533451 0.10599 0.0284051 -0.0727685 0.0354633 0.109314 0.0597414 0.0612564 -0.00361069 -0.0329315 0.0212359 -0.0382753 0.0478377 0.0588065
milk -0.0140839 -0.0393898 -0.0927155 0.0590223 -0.00328158 0.0246893 -0.0124543 -0.0216481 -0.00723361 -0.0335652 -0.0119929 0.0600135 0.0669317 -0.0386601 0.0342722 -0.0843637 0.0700567 -0.00718639 -0.0359772 0.0559716 -0.0726452 0.0424931 -0.0353535 0.0851974 0.0656181 0.0711817 -0.0954152 -0.028532 -0.070345 -0.0370695 -0.039451 -0.0787253 0.052725 0.0328012 0.0396454 0.0833803 -0.108666 0.00117766 0.0249651 -0.0724052 0.00608383 0.0187641 0.0803573 0.0680706 0.0453192 0.059987 -0.023284 -0.00603782 0.0777477 0.00483341 -0.0767404 0.0441108 0.0560862 0.0613931 -0.054435 0.0456086 -0.0512629 0.00784818 -0.056964 0.080704 0.0532098 0.0732109 -0.0247442 0.00155896 -0.00267905 0.0104905 0.00687805 -0.0919202 -0.00839967 0.0203829 -0.0680297 0.0573974 0.0387399 0.058536 -0.00257361 0.0444922 -0.0100562 -0.0445633 0.0202343 -0.078247 0.0571929 -0.0500918 -0.0667621 -0.0672084 0.0133916 -0.0543198 0.0550781 -0.101546 0.0559273 0.0613831 -0.0392586 0.0679694 0.0573094 0.0581787 0.0221346 -0.026177 -0.0395782 0.0614853 0.0325103 -0.0742137
cupboards -0.0601336 0.0790308 -0.037537 -0.0317369 -0.0264991 -0.0276014 0.0304187 0.0184449 0.014961 0.102125 0.0125734 0.0902255 0.0128451 0.00228013 -0.0546725 0.00899474 -0.00985964 -0.0251381 0.043902 0.0142373 -0.020288 -0.12301 0.0277829 -0.0564354 0.0405075 0.0204341 0.0996099 0.117528 -0.0444008 0.0758321 -0.00766596 -0.00638593 0.0144939 -0.00741243 0.0175237 -0.0014135 0.0518734 0.0278412 0.117331 -0.0228666 0.0623029 0.0537895 -0.0618824 0.0144332 -0.0529883 0.0447893 -0.0635329 0.0326097 -0.0111953 -0.0878544 -0.0215689 -0.0367967 -0.0289313 -0.043134 -0.0368423 0.0200755 -0.11893 0.00717233 0.0703558 0.0536919 -0.0138355 0.0420806 0.0177061 -0.0590642 -0.0543365 0.076023 0.0633137 0.0140592 0.0643643 0.00158881 0.0318285 0.0643927 -0.0414806 0.0759948 0.0778923 -0.0234394 -0.00337883 -0.0824027 0.0264205 0.0319639 0.0884183 -0.0745263 0.0177397 0.0888101 -0.0222249 0.010117 -0.0436236 -0.0645176 -0.0181284 0.00244063 -0.0497955 -0.0661125 -0.0753327 0.0219159 0.0624573 -0.0132645 -0.0384207 0.0245652 9.62557e-05 0.0872774
seemed 0.070282 0.0504584 0.0456677 0.0264271 -0.0672593 -0.0124199 -0.0105805 0.0175513 -0.00148417 -0.060662 0.0801913 -0.0267986 -0.0117212 0.0112766 -0.0222953 0.0408362 -0.0307956 -0.00763038 -0.0101879 0.097614 0.0578238 0.000530022 0.0621119 -0.0277904 -0.0472274 0.037228 -0.112986 0.0311337 0.000584915 0.00119771 -0.038321 -0.0139743 -0.0439809 -0.0497907 -0.0845185 0.0948437 0.108707 -0.0686001 0.0387636 -0.0182597 -0.0163564 -0.0153345 -0.0944507 -0.0367714 0.052627 0.0613111 0.0388698 0.0758479 0.0697571 -0.064378 -0.0392198 0.0156709 0.0484055 -0.0117972 -0.0888127 -0.063812 -0.0613332 0.0794884 0.0685936 -0.028061 -0.019096 0.0992842 0.0942015 -0.0519586 0.0303765 0.0565071 -0.11331 -0.0337675 0.0450617 -0.101379 -0.0316334 0.0262548 0.109548 -0.0331684 -0.108242 -0.0291083 0.0691817 0.00909375 0.00553964 0.0244827 -0.0339187 0.0101178 0.0694297 -0.0495791 -0.0213582 -0.0858888 0.0473147 0.0341872 -0.0491942 -0.00773698 0.00397984 -0.0315319 0.045982 -0.0400051 -0.0112923 -0.08661 -0.00191794 0.0271401 -0.011538 0.00667674
certainly 0.0198535 0.0691296 -0.0455544 0.0743316 -0.0485196 0.00631504 -0.0435838 -0.059928 -0.0853806 -0.0178006 0.0116537 -0.041513 -0.0261017 0.0710758 -0.00597912 0.0443348 -0.0353291 0.01146 0.0101506 -0.0154025 0.0214984 0.00797854 -0.0675448 -0.0437967 -0.000392191 -0.000392404 0.0786321 0.0644515 0.0138755 0.0211752 0.0116727 0.0316454 0.0669904 -0.0286984 -0.0888392 -0.0420369 -0.000133343 -0.0625303 -0.0312836 0.0417154 -0.102771 0.0883149 0.00172375 0.011332 0.0309048 -0.0812388 -0.0198972 -0.017957 -0.0233149 -0.101738 0.0347309 -0.00382655 0.0215755 0.0188485 -0.0797745 -0.108097 -0.108432 0.0230904 -0.0545496 -0.123213 -0.00455917 0.0615199 -0.0651235 -0.0140118 -0.0935932 -0.0462465 0.0434173 0.0891407 0.0684035 0.0423489 -0.00909491 0.0955469 0.0653551 0.0620319 0.0662386 0.010534 0.0479909 0.0174877 -0.0983584 0.0131726 -0.0491301 -0.0414606 0.0463031 0.0651888 -0.0796116 -0.111866 -0.0953715 0.0650495 -0.0354706 0.0211126 -0.107272 0.0669729 0.0694861 -0.00861641 -0.0224414 0.0643594 0.011766 -0.0443018 0.0871412 -0.013285
hold -0.0347392 0.0327349 0.0589447 -0.0409102 0.142561 0.13496 0.0358099 0.0782495 -0.0272675 -0.0414709 -0.0459445 0.0357569 0.00510245 0.0295601 0.0970305 0.0214227 0.10755 0.0136934 0.104546 -0.0373748 0.0689764 0.0103869 -0.113493 -0.0115102 0.0424462 0.0597005 0.0666587 -0.042663 0.0323763 -0.0861281 0.0465766 -0.0327437 0.115833 -0.0476333 -0.00455293 0.00944322 0.0874469 -0.0396095 0.0644682 -0.0165021 -0.0504683 0.0487089 0.0394674 0.0778775 0.0886246 0.00424529 -0.045171 0.0215218 -0.0726706 0.0520365 -0.0639011 0.0240616 0.0553307 0.00824638 0.0914573 -0.0732446 -0.0494085 -0.0729482 0.0487543 -0.107902 -0.104363 0.112522 -0.0880734 0.0416822 0.106777 -0.023667 -0.0094641 -0.0884415 -0.00499448 -0.0806955 0.0451794 -0.00467326 0.0428993 -0.034729 -0.00106929 -0.0395025 -0.0200384 0.0109988 0.0891354 -0.00156835 -0.0785906 -0.0821869 -0.000249304 0.00273765 0.118482 -0.0639859 0.0659508 -0.0144324 0.0580676 0.0288397 -0.114094 -0.00298289 0.00870722 -0.0263832 -0.047942 0.0111818 -0.00675765 -0.00774218 -0.127867 -0.0703634
remarkable -0.0404351 0.00484387 0.074975 0.0532666 -0.0575933 0.0180931 -0.0871443 0.0675866 -0.0286447 -0.0494435 0.0579839 -0.00562226 -0.021652 -0.0353979 0.0568401 -0.0859975 -0.0591044 0.00296446 0.123224 -0.036512 0.113541 0.0332407 0.0500448 -0.0741966 0.0363777 -0.107022 -0.0732893 -0.0579787 0.0933419 0.0188969 -0.0524857 0.0493269 -0.0632708 -0.0399358 -0.0165634 -0.0246305 0.107175 -0.0153023 -0.0777989 0.0078406 0.0195627 -0.0613256 -0.109622 -0.0419787 0.0792203 0.054508 -0.0299012 -0.0738555 -0.0924523 -0.0120259 -0.0268134 -0.0646582 -0.0255777 0.102025 0.00410828 0.0981285 -0.11442 0.0823967 0.0496721 -0.0154212 -0.0947587 0.0378531 -0.100347 0.132442 0.0465598 0.067199 -0.0765291 -0.0524798 -0.0996269 -0.0701439 -0.038812 -0.013542 0.0905379 0.0199124 0.0320351 -0.0804579 -0.0222464 0.0604109 -0.0568908 -0.0445066 -0.120269 0.0174305 -0.127674 0.00580631 -0.0124037 -0.00617746 -0.0179948 -0.025686 -0.0915443 -0.0104411 -0.0412587 -0.0637842 -0.0185069 -0.0459975 0.0382659 -0.0977904 0.0275785 0.10099 -0.0723966 0.105457
pictures 0.0390409 0.0364707 0.0393245 0.0163493 0.0297114 -0.0157586 -0.0640548 0.0563462 0.0109163 0.0268915 -0.0954631 -0.0611479 0.00873668 0.0520055 0.065494 -0.0731269 0.0566192 -0.0322969 -0.073345 0.0125395 0.0477934 -0.0487762 0.0143122 -0.0592457 -0.0459048 -0.0494673 -0.00887457 0.0653911 -0.0210579 0.0694184 -0.024837 -0.046667 0.0501835 -0.017447 -0.0303618 0.0712572 -0.0872088 0.0436862 -0.0328622 0.0189511 -0.0910415 -0.00477722 0.0677166 0.0123754 -0.0044506 -0.0252867 0.0703136 -0.040442 0.0428957 0.0343143 -0.0691888 -0.012137 -0.0947764 -0.0751322 -0.00291521 0.00554642 -0.0832913 -0.0810591 -0.0310069 0.0146536 0.0643424 0.0351741 0.0856395 0.0771718 -0.00863574 -0.0165847 0.0142682 0.0714841 0.0193248 0.0702404 -0.0249653 -0.0792342 0.0614722 -0.0679214 0.0713086 -0.0588928 0.0779326 -0.0891496 -0.0887918 0.0469178 -0.0295435 -0.0875297 0.0425487 0.0369325 -0.0860959 -0.0724887 0.0774179 -0.0325195 -0.0605865 -0.0710823 0.00839645 0.0412058 -0.0986092 0.0411115 -0.0286804 -0.0503114 -0.0161052 0.0403737 0.0328633 -0.0711523
passage 0.0658744 -0.140256 0.0543847 0.106376 0.110199 -0.0706888 0.0168343 0.0518362 -0.100615 -0.0485311 -0.021832 0.0108555 0.0861282 -0.0935043 -0.0536346 -0.00736033 -0.0962769 0.0328222 -0.081745 -0.122511 -0.00834513 -0.0307122 0.00658086 0.0546604 0.0174875 -0.0875013 0.122026 0.137837 0.0354538 0.0935305 -0.0290838 -0.0164079 0.0163108 -0.0211934 0.115475 0.0285344 -0.156109 -0.033152 -0.0348509 0.0798922 0.00151949 -0.02256 0.0902403 -0.114418 -0.0311409 -0.000581824 -0.0302556 0.0446471 -0.0541649 -0.00366396 0.130626 0.0467087 0.0296794 0.0284593 -0.0734944 -0.0726244 -0.00373572 0.129384 -0.0958542 0.0302916 0.0655731 -0.0380188 0.0548621 -0.0201657 -0.0613709 -0.0145821 0.0421016 -0.0838422 -0.0471501 0.0282657 0.0797988 -0.042883 0.0433153 0.155285 -0.00795809 0.0378236 0.00393254 -0.0936894 -0.121532 0.129362 0.0252399 -0.0220111 0.100503 0.0501257 -0.0546289 -0.141104 0.0319452 -0.035524 -0.0977933 -0.06393 -0.102359 0.0801387 0.0173213 -0.1377 0.0701557 -0.0106661 -0.110868 0.0256961 -0.0651079 -0.0299996
to 0.0707912 0.637086 -0.0330402 0.173104 0.16773 -0.47908 -0.343155 -0.0118774 0.337209 0.360461 -0.119265 -0.252508 0.441602 -0.223487 0.0262603 -0.0109149 0.126425 -0.0252896 -0.0266918 -0.0303061 0.00714131 -0.3352 -0.174694 0.248641 0.0266867 -0.636331 0.254254 -0.229599 0.210697 0.183494 -0.110811 0.426957 0.0665642 0.0674669 0.169308 -0.0699785 -0.0657458 -0.0378396 0.0140797 -0.199283 -0.163228 0.125804 -0.750566 -0.157144 0.144869 -0.0126593 0.179226 0.101936 -0.280611 0.299616 -0.870001 -0.426723 -0.19631 0.414991 -0.0247366 0.0549264 -0.077793 -0.534401 -0.519012 0.482755 -0.0630186 0.445602 -0.135531 0.172408 -0.26239 -0.154015 -0.151671 -0.0496903 0.206733 0.192753 0.333261 0.277885 -0.285517 -0.0247355 -0.142421 -0.172881 0.432574 0.385303 0.289011 -0.492547 -0.173908 0.268203 0.148605 0.151182 0.328738 0.149438 -0.00537177 -0.0188321 0.184817 0.180111 -0.146187 0.377955 -0.176033 0.169388 -0.428809 0.193038 0.881848 -0.0108139 0.365221 0.312271
unpleasant -0.0158495 0.00821851 -0.124964 -0.00509771 0.0515206 0.0451326 -0.0583007 -0.0764504 0.0685349 -0.00480408 -0.0790636 0.00171014 0.0320772 -0.0876587 0.0178177 -0.0927492 -0.0646356 0.09522 0.0862641 -0.0509326 0.0526441 0.0531553 0.0944737 -0.0859603 0.0540877 -0.0534904 0.000693873 0.0118051 -0.000297175 0.0536403 -0.0977557 0.0542682 -0.116339 -0.119988 0.0870915 0.0834472 -0.0638288 -0.0733159 0.0564812 0.0592648 0.0578071 -0.049875 -0.0497297 0.0400629 0.0750984 0.0953251 -0.0234936 0.0276716 -0.0727261 -0.0778127 0.0371691 0.0411266 0.0360193 0.0745939 -0.0802125 -0.0431117 0.034947 0.000755118 -0.074678 0.0155768 0.0261946 -0.0964223 -0.107169 -0.0665342 -0.103169 0.0546136 -0.0492081 -0.0118893 0.097516 0.0468466 -0.0847159 -0.0111983 -0.0447439 0.107767 0.0265265 -0.05456 0.020857 0.0801741 -0.0080335 0.0361585 0.0251177 0.0110041 0.0900967 -0.054754 -0.0699178 -0.0898032 -0.0375337 0.125846 -0.0219985 -0.0307166 0.0439781 0.0447575 -0.0270318 0.00858011 0.0532567 0.00445405 -0.0812243 -0.0373667 -0.0602851 -0.0243575
whatsoever -0.0872929 0.078925 0.0837791 -0.006555 0.048029 -0.0287001 -0.0629659 0.0558973 -0.0536616 -0.0388813 0.0360238 -0.0444482 -0.021303 0.03692 -0.0324412 0.0662041 -0.0114452 -0.077605 0.0862139 0.0359783 0.106492 -0.0889188 0.000942411 -0.0412008 0.0881795 0.117504 -0.0161243 0.0514349 -0.0392797 0.035932 0.0163398 0.0900592 0.106385 -0.00128299 -0.0604557 0.0110855 0.0266437 -0.0251995 0.108125 0.0113864 0.032992 0.0569941 0.00882054 -0.0650817 0.015887 0.0875986 -0.0370197 -0.0557992 0.0856532 -0.0210947 0.0320898 -0.00392597 0.0209505 -0.0156641 0.0300107 0.0591379 0.0837318 -0.0750934 -0.0408322 0.0130726 -0.0767493 0.0431654 0.0462249 -0.0708962 -0.0286648 0.019439 0.0343121 -0.0577321 -0.0577091 -0.103096 -0.0553812 -0.0905766 -0.0640362 0.0414922 -0.0311782 0.0441413 0.0687912 -0.0466084 -0.0506981 -0.0907375 -0.03219 -0.0138767 -0.0249951 0.067952 -0.0426117 0.0723245 0.0429108 0.0370638 -0.0992872 0.0727235 -0.0273849 0.126438 -0.0131435 -0.0602528 0.0198243 0.0585291 0.0796753 -0.0760963 0.0515598 0.101534
under 0.0359637 -0.104479 0.0093861 0.0299893 -0.0177814 -0.12424 0.0454211 0.0729679 -0.0564377 0.0026979 -0.0059131 -0.118197 -0.0705634 0.0251031 -0.122076 0.112631 -0.0485412 -0.125874 -0.106981 0.00129804 -0.0987003 -0.0605456 -0.0180538 -0.0528788 -0.0627113 0.0341374 0.0603123 0.0391564 0.0051378 -0.00941028 0.120292 -0.0759164 -0.0169401 0.010277 -0.126304 0.105684 -0.0236512 -0.0342509 0.0463572 0.0282097 -0.00689043 0.0238404 -0.0750477 -0.0343204 -0.0239153 0.106769 0.0350792 -0.00072374 -0.0430613 -0.102579 0.0182332 0.133727 -0.015982 0.0565195 0.0578106 0.0117071 0.0326961 0.000475232 0.0671064 -0.0946468 0.00455118 -0.0286634 0.132089 0.0798908 0.0230057 -0.00552832 0.0497977 0.0548624 0.0378154 -0.0181862 0.0968903 0.0652118 -0.0252147 -0.00952894 0.113312 0.107896 -0.00122779 -0.0551396 -0.0468184 -0.0322892 0.0451044 -0.0296477 -0.0653745 0.0255696 -0.0485939 -0.0400225 -0.000527682 -0.0913721 -0.00665592 -0.0259858 -0.0483463 0.109857 -0.0522387 -0.00804276 -0.0472284 -0.124293 -0.0864976 0.123785 -0.0455481 0.00451849
worth 0.0544408 -0.0635348 0.00242767 -0.0978427 -0.108682 -0.0832425 -0.0617378 -0.0315198 0.0564317 0.0242408 -0.0250667 -0.104915 -0.004012 0.0920096 -0.0338031 -0.0841035 -0.0423324 -0.0371165 0.0167782 -0.126139 -0.0351914 -0.0523019 -0.131003 0.0174541 0.0169697 0.00331421 0.0384452 -0.0560384 -0.00337994 -0.0896701 -0.0283796 0.00873651 -0.070889 -0.050679 0.0129687 0.119748 -0.026536 0.0029489 -0.0659922 0.0782208 -0.0466793 -0.094706 -0.0434559 -0.0663302 -0.0383162 -0.0273723 -0.00891192 0.0223461 0.0409623 -0.0106714 0.0624726 -0.0191449 0.0334454 -0.0160676 0.0389453 -0.0294079 -0.0107458 -0.0123399 -0.0957237 0.0152835 0.114222 0.00704679 0.051442 -0.0914268 0.081633 0.0807652 -0.0941755 -0.0939137 -0.0751629 -0.0297809 0.0638386 0.0529746 -0.122902 0.079269 -0.0797483 0.0381232 -0.0507021 -0.0635415 -0.0479178 -0.0120676 -0.0428865 -0.0457948 -0.0490472 -0.00132078 -0.0409813 0.0968264 -0.0746924 -0.0210643 -0.0375105 -0.0536988 0.0732975 -0.0641212 0.083768 0.0730247 0.0504399 -0.0429401 0.0443263 0.0482192 -0.0856564 0.00397922
updated 0.0777074 -0.0326803 -0.0622158 0.0895062 -0.0493939 -0.00692263 0.00861861 0.0575275 0.073181 -0.0687596 -0.0825111 -0.000765134 0.0446704 -0.107912 0.0673846 0.0277571 0.0252171 0.0617289 -0.0515779 0.0784795 -0.0227964 0.0417318 0.0714123 0.0789924 -0.0259048 0.027702 0.0256342 0.00912594 0.0575996 0.036087 -0.0292832 0.0579189 -0.0725559 -0.0470079 0.0320241 0.0786399 -0.0567033 -0.0132828 -0.0126685 -0.0649653 0.0698657 0.0798042 0.0313238 -0.00866944 0.0714705 -0.0237015 -0.0459544 0.0833268 0.0776191 -0.032956 0.0488962 0.026848 0.0241556 0.0339678 -0.0280016 -0.0472921 0.0709054 -0.0325337 -0.0761663 0.0385924 0.0652819 -0.0532008 -0.0419888 0.0102797 -0.0310056 -0.00149837 0.0986003 0.0363547 -0.0805456 -0.0105415 -0.0843279 0.0316579 0.0504369 -0.0142702 0.0275779 0.0279648 -0.00756201 0.0604775 -0.0290059 -0.0158575 0.0901526 0.0923534 -0.0128882 -0.0181707 -0.0519881 -0.00894346 -0.038768 -0.00892294 0.00386372 -0.000854024 0.0483207 0.0314744 -0.0398667 -0.010907 0.0118715 -0.0594908 -0.0570648 -0.0515635 0.0197443 -0.073156
garden -0.0452113 -0.106556 0.0413701 -0.0879708 0.0349148 0.0111371 -0.00213978 0.100319 0.0351498 0.00311065 -0.146444 -0.0916677 -0.115988 0.0313876 -0.0955683 0.131402 -0.0508455 -0.0902185 0.0490843 -0.0162926 0.0380783 -0.109469 -0.0385484 0.0655455 -0.0486001 0.0399791 0.0720886 0.102099 -0.111621 0.133172 -0.112782 -0.0197938 0.0501628 -0.0774294 -0.0767693 0.00632073 -0.000521663 0.00420581 -0.0667753 -0.0672553 -0.0360295 -0.0821537 -0.0254771 -0.0468824 0.0514693 -0.0268375 -0.0693933 0.0864299 0.0212274 0.0227769 -0.0577434 -0.00963219 0.0429639 0.0650884 -0.0376164 0.00764916 -0.0438388 -0.0992974 0.0720012 0.0699092 -0.0166531 -0.0553226 0.0392047 0.0222781 -0.0791658 -0.0841741 -0.023228 -0.0394789 0.0673504 -0.0253041 0.0471282 0.0383974 -0.0711124 -0.033423 -0.00928448 -0.0609534 -0.0936618 0.0504865 -0.109213 -0.164394 0.086142 -0.044891 -0.0541765 0.0357138 0.00980613 -0.0333184 -0.029718 0.00990366 -0.0350849 -0.00261199 -0.0836636 0.103293 0.0144681 -0.109897 -0.0436699 -0.0911282 0.00229804 0.0287928 -0.0187834 -0.0594183
sitting 0.05744 0.123275 -0.0388577 0.083514 0.00527575 -0.0780105 0.0559135 0.0481373 0.0641606 0.0920155 0.0703193 0.0925582 -0.0131579 0.0276339 -0.0423371 0.021603 0.107767 0.032084 0.0624487 0.0308599 0.0444367 0.0286617 -0.00223578 0.0104926 0.0453162 0.101464 -0.0367719 -0.0548187 0.0518883 0.00621524 0.0708785 -0.00686345 0.0533854 0.0805704 0.0567656 0.0312729 0.00704475 -0.0060029 -0.0859058 -0.00787063 0.122106 0.0300472 0.0605301 0.0735668 -0.0906161 -0.051321 0.0212358 -0.00709464 0.0716116 0.0705445 -0.0643293 -0.0654254 -0.0369934 0.0269826 -0.0631038 0.111431 -0.0233059 0.034122 0.094079 0.00634669 0.0739944 0.0360247 0.0140097 0.12012 -0.0895965 0.0443924 -0.00416358 -0.0247961 -0.0821504 -0.0705922 0.0490574 0.0313569 0.04066 -0.12662 -0.0360267 -0.100891 0.0627179 -0.0503277 -0.0189499 -0.0533724 -0.0954271 0.0819208 0.0591696 -0.0298601 -0.0744979 0.0819767 0.0465101 -0.00351213 -0.00543927 0.115766 0.0381213 -0.0536515 -0.00105503 -0.075228 0.0618924 -0.00809482 0.0465458 -0.0188341 0.0625688 0.0499684
very 0.0285774 0.147444 -0.201218 -0.00886407 -0.0673861 0.121345 -0.00255984 0.0487318 0.0402418 0.0753367 0.214878 0.151002 -0.0624019 -0.079206 0.180964 -0.112128 -0.103097 -0.00231234 -0.21832 0.105588 -0.0645589 0.110887 0.0951746 0.136852 -0.0657345 -0.0979761 -0.0885105 0.0302056 0.0856959 0.0480868 -0.145754 0.0962816 0.0970966 0.24891 0.266096 0.0584483 0.124871 -0.0506418 0.0592971 -0.0753365 -0.0738335 0.182584 -0.145613 -0.166707 -0.279088 -0.25248 -0.0349628 0.139239 -0.0384303 -0.0981776 0.0810729 -0.129346 -0.117013 -0.133744 0.117839 0.0522674 -0.33699 -0.0565693 -0.168541 -0.0415944 0.214908 0.0650325 0.0702046 0.0946527 -0.026977 -0.0682554 -0.0627297 0.127374 0.343192 -0.0140624 -0.0369444 -0.0278283 0.0250974 -0.15394 0.110079 0.00432909 -0.0883587 0.132271 -0.140721 0.0314453 -0.0472591 -0.0934059 0.198871 0.0235573 0.0274205 0.186425 0.0455081 0.0221655 0.169008 0.0637633 0.0447572 -0.256294 0.00225017 0.153452 -0.126047 0.0726868 0.137568 -0.0581454 0.108666 -0.0260604
fall -0.044857 -0.0744101 0.0282605 0.0455413 0.00367788 0.0233163 0.156451 0.0850106 0.0943482 0.0350097 0.0380814 -0.0734952 -0.0892429 0.0421671 -0.102828 0.0763256 0.082697 0.0191493 0.0818809 -0.0683878 0.152398 -0.108223 0.027931 -0.105634 0.0561309 -0.0584929 0.0616721 0.0702663 0.00695647 -0.111146 0.095248 0.0430047 0.0447548 -0.0231665 0.0463257 -0.0111579 -0.0397939 -0.079711 -0.0765443 -0.0865417 0.111197 -0.0525988 0.0329628 -0.0505205 -0.0193939 0.117821 -0.203545 -0.107066 0.119783 -0.0597654 -0.00697336 0.00507731 0.0257068 0.14036 -0.0538554 0.00162025 0.126752 0.0791131 -0.147148 0.0433914 0.0726416 -0.11139 0.0604792 -0.0970145 0.0682428 0.0545296 -0.0808606 0.0171271 0.0115423 -0.0939415 -0.078396 0.028915 -0.0659958 0.110239 0.0527832 0.0891596 -0.0860004 -0.140444 0.00791271 0.0155535 0.0133348 0.0116259 0.0645162 0.122178 0.00111381 -0.0289313 -0.101138 -0.0213166 -0.14885 0.00134537 0.0327443 0.120288 0.0180707 -0.0752937 0.0671245 0.0772536 -0.115612 0.0790733 -0.128868 0.0377941
word -0.0790943 0.0886597 -0.0043554 -0.0730039 0.0231207 -0.0428484 0.0339076 0.065388 -0.0707756 -0.0561284 0.0208208 -0.0773928 0.0455334 0.011682 -0.0603481 0.0982486 0.0822087 -0.0320532 0.12174 0.0737576 0.138912 0.0654591 -0.00657475 -0.0678895 0.084203 0.130871 0.0938153 0.0299408 0.0628988 0.0169257 0.00948031 0.0336872 -0.063568 -0.0501586 -0.116612 -0.0241852 -0.0753913 0.0554569 -0.118401 -0.0540203 0.126567 0.0107621 -0.0591395 0.0161681 0.116854 0.0869649 -0.00312314 -0.113265 0.0898079 -0.0448597 -0.138739 -0.0626534 -0.0182783 -0.0168853 0.0921779 0.0882006 0.0273649 -0.0643303 0.116128 0.091787 0.0487925 0.0453519 -0.092012 -0.0434267 0.106734 0.0450859 -0.0459128 0.0486107 0.0366168 0.0553294 -0.092487 -0.0328928 0.0750568 0.0954784 -0.0696462 -0.0266507 0.119072 0.0283687 0.0867506 -0.138939 0.0314002 0.0307153 0.0795038 -0.0176536 0.0992799 0.0909129 -0.00877257 0.106331 -0.0169681 0.0243735 -0.0173789 -0.0276625 0.120227 0.0443426 -0.0478668 0.00303849 -0.0547684 0.0314921 0.0230634 -0.0164846
trouble 0.11015 -0.0197133 0.0201159 0.0819175 -0.0470181 -0.0114258 -0.0100731 0.101457 0.0734161 0.0195435 -0.0116178 0.0520467 0.0598712 0.0774356 -0.087206 0.0721622 -0.0025077 -0.0259766 -0.0484962 -0.0111761 -0.0600978 -0.0540888 -0.0133733 -0.04238 0.0579501 -0.0216687 -0.0201508 0.0923234 -0.0852649 -0.0592322 0.089892 -0.114435 0.00968337 0.107503 0.0598967 0.0226783 0.0247111 0.059493 0.107801 -0.00724691 0.0173684 -0.0236692 0.107646 -0.0324417 -0.0528072 -0.102433 -0.0395006 -0.0554317 -0.0330037 -0.10347 -0.0475427 0.0555883 -0.0762343 -0.0182169 0.0352629 0.0653302 0.0989834 0.0205776 -0.00436679 -0.0263514 0.0107334 -0.0228693 0.0153459 -0.0392872 -0.0146806 -0.0960549 -0.0500113 -0.0279222 -0.0786511 0.0192188 0.0548946 0.0305327 0.00885002 0.0440102 0.107344 0.0162752 -0.102168 0.0803726 -0.097203 -0.0483183 -0.0400249 0.0452266 0.0218205 0.0900478 -0.0282712 -0.00665154 0.042757 -0.101849 -0.0202385 -0.0590079 -0.0709486 0.0689201 -0.0369465 0.0261839 0.0573134 0.00637041 -0.0594592 0.0350536 -0.0110529 0.0209531
cool -0.00378785 0.056096 -0.0988912 -0.0235494 0.0582741 0.0261731 0.0162038 -0.0555407 -0.0438968 -0.0697287 0.0314764 -0.0356626 -0.0554186 -0.114095 -0.0434592 0.0931849 -0.0561893 -0.00573358 -0.0849353 0.0195121 0.074734 0.0337131 -0.00385335 0.0410688 -0.0577509 0.00177747 -0.0551547 -0.00849912 -0.0540646 0.107915 -0.0131781 -0.0849575 -0.0497927 -0.0870789 0.0429723 0.106061 -0.090471 -0.00604307 0.02204 -0.0255313 0.107651 -0.0430788 0.0561127 -0.109669 0.0913009 0.0684052 -0.0749156 0.02911 0.0991057 -0.0185585 0.00637756 0.0359707 0.0165191 0.00375651 -0.0379445 -0.035078 -0.0429028 -0.0572557 0.0117913 -0.0515732 -0.040511 0.117831 -0.0202734 0.0732522 0.0383411 0.129588 0.0154813 -0.0138628 0.109471 0.0474958 0.0262926 0.0401943 -0.0303909 -0.0761114 0.0936178 -0.0452925 0.0421719 0.00587163 0.00860437 -0.0384483 -0.0541476 0.0438502 0.056492 -0.0520329 -0.0853108 0.0531153 0.0110132 -0.00680523 0.0951652 0.0488131 0.0420946 -0.0263947 0.0165395 -0.0297539 -0.0322917 0.0847962 -0.0346439 0.00858615 -0.0301411 -0.0376166
did 0.00170696 -0.0108178 -0.0739816 0.0176718 -0.0115129 -0.0750841 -0.00598181 0.120819 0.0438438 0.0448977 -0.117828 -0.123928 -0.00179323 -0.108829 -0.0787477 -0.00308872 -0.0757122 -0.0242946 0.0516578 -0.0964336 -0.00716289 0.0193824 -0.0818493 -0.0423837 -0.0496943 -0.0846033 0.124612 -0.0526691 -0.000958158 -0.0330846 -0.151608 0.119238 0.0809437 0.0483221 -0.0573804 -0.0530453 -0.0799179 0.0126029 0.0450984 0.0289945 0.0471777 0.132119 0.0768104 -0.0868356 -0.00438691 0.0381708 0.12409 0.0629996 -0.0355632 0.0257644 -0.0098027 -0.111278 0.0218076 0.113556 0.0276624 -0.107003 0.0265421 -0.160467 0.144742 0.0890197 0.0768764 0.0485718 0.112316 0.00272406 0.0975548 -0.0254306 -0.131429 0.0668796 -0.0956823 -0.0757435 0.0361856 -0.103275 0.0497083 -0.0954342 -0.113122 0.0836931 -0.0163454 0.00831981 -0.0471976 -0.10303 -0.0660177 -0.0229756 -0.0969763 0.1014 -0.0470546 -0.0384738 0.160446 0.118095 0.0748147 -0.0536575 0.0298906 0.00841428 0.053495 0.00616807 -0.167625 -0.0619333 -0.0232345 0.0588353 -0.00881082 -0.0403415
large -0.116781 -0.017723 0.133475 -0.0943835 -0.0615163 0.0348827 -0.0130322 -0.0316241 0.0742913 0.101792 -0.0503015 -0.0513553 0.116333 0.12154 -0.0243168 0.0657918 0.0878551 -0.0797258 0.0890117 0.0210729 0.0547272 0.0418934 -0.0964291 0.0550336 0.0899421 0.0919876 -0.0353439 -0.100134 -0.0284264 -0.0846051 -0.0360114 0.0604632 -0.0527419 -0.0334319 -0.0618786 -0.032866 0.0634307 0.0698145 -0.111642 0.00204685 -0.0332246 0.0574689 0.023382 -0.000887048 0.0749849 0.0938634 -0.110728 -0.0336585 0.112773 0.0981311 0.0784618 0.14144 0.088662 0.0450775 0.0456778 -0.00297396 0.039305 -0.0256589 -0.00784634 -0.0250632 -0.0187208 0.0367202 0.0318047 -0.0776245 -0.0641852 0.0732581 0.0352842 -0.0796639 -0.106235 -0.0915662 -0.000203058 0.00736749 -0.137209 0.0650698 -0.00662444 -0.0620561 0.0147609 -0.00546456 -0.0489805 0.0911276 0.0380617 -0.0104206 -0.0436005 0.0159818 0.0427458 0.042102 0.00328821 0.0381113 0.0202228 0.10403 -0.0212872 0.0775459 -0.0140789 0.0411694 0.0807107 0.0533201 -0.0670338 0.0956977 -0.0616118 -0.0919246
this -0.173776 -0.0263663 -0.156627 -0.0486612 0.129789 -0.0110071 -0.0889659 0.0152518 0.199182 0.0431032 0.117532 0.0422515 0.0810417 0.0641473 -0.186008 -0.0785452 -0.0510154 0.164008 -0.127976 0.0769164 0.200404 0.0271228 -0.158175 -0.0916981 0.149978 0.227939 0.103757 0.0179145 0.142182 -0.159192 -0.064297 -0.223479 0.114003 -0.062121 0.173767 -0.0473325 -0.218458 0.158603 -0.20281 0.13843 0.0659573 0.302024 -0.183447 -0.0391391 0.152883 -0.122853 0.124829 0.0553779 0.147332 0.149273 -0.177594 -0.0482895 0.231825 -0.145729 0.0194632 0.0118622 -0.151312 -0.00671374 0.00122893 0.18026 -0.207139 -0.0348423 -0.0187723 0.149283 -0.0517702 0.0946372 0.185827 -0.151976 -0.00940805 0.116757 0.151272 0.0404155 -0.294828 -0.328626 -0.0337552 0.0178403 -0.157317 0.194006 0.0478054 0.0963675 0.025419 0.0265776 0.100608 0.0838808 0.0139936 0.0337768 0.0915769 -0.0862451 0.0138804 0.149229 0.11565 -0.00843776 0.0182066 0.0557557 -0.186961 0.033117 0.144961 -0.156152 0.0565172 0.0573551
as 0.0609408 0.0486151 -0.0631768 -0.0475269 -0.0538604 -0.0785907 -0.00923961 -0.00276609 -0.0889894 -0.00850612 -0.0856089 0.00575535 -0.0127867 0.0853995 0.0144941 -0.061751 -0.0794346 -0.0918496 -0.0194686 -0.0219004 0.0101481 0.0484455 -0.0561407 0.0551781 -0.0304037 -0.0961463 -0.026265 0.103541 0.0593492 0.0252424 -0.0626799 0.0509498 -0.0360369 -0.0942176 -0.0386986 0.00832772 -0.0335155 0.0614303 -0.0491918 0.0769679 -0.00718628 0.0563524 0.0930764 -0.0746637 0.0292661 0.0914672 -0.00202472 -0.0558148 0.0816997 -0.0867953 -0.0273054 -0.0556958 -0.0584243 0.0145585 -0.109011 0.0655999 -0.00233988 -0.0113815 0.00893938 -0.0188266 0.0837804 0.0367754 0.114649 0.0199989 0.0545073 -0.0423348 -0.04168 -0.040143 0.0153933 -0.0259842 0.0319439 -0.0644168 -0.0129764 -0.00857415 0.0546215 0.0562466 -0.0168818 0.0427839 -0.0702472 -0.0583964 0.0423779 0.0106158 0.0528527 0.0612695 -0.02636 -0.0565552 -0.0383853 -0.113714 0.00485895 0.0325599 0.0272151 -0.0387362 -0.0858436 0.0210369 0.105085 -0.109541 0.0345206 -0.0703822 0.0406342 -0.0367902
small 0.0595892 -0.00408952 -0.0406739 0.0106217 -0.0436257 -0.0351885 -0.0155497 -0.0774985 -0.0885126 0.0477485 -0.0639253 -0.0458559 -0.0155263 0.0156054 -0.0394398 -0.0226691 0.00189673 -0.014959 0.0484034 0.0505358 -0.0366439 0.0331516 -0.0186449 0.0427315 -0.0175298 -0.0920584 0.036817 -0.0534819 0.0194541 1.19272e-05 -0.0313744 0.0525391 -0.000132998 0.0922701 -0.0324177 -0.00175968 -0.0066629 -0.0861328 -0.0577967 0.0474875 0.0206751 -0.0294183 -0.0765925 0.0346506 0.0488528 0.00261248 -0.013677 -0.0807776 0.0214666 -0.0809915 0.0736533 0.086525 -0.0834712 -0.0492524 -0.078266 0.0532782 0.0577612 0.0532063 -0.0721903 -0.0934159 0.0352755 -0.00987779 -0.0531723 0.0220989 -0.06317 0.0801803 -0.0300292 -0.0309883 -0.0486417 0.0634134 -0.0139543 0.0930277 0.0811758 -0.00148108 0.0335519 0.0422966 0.0176283 0.0684372 -0.0180833 0.0782997 -0.0469135 -0.00232727 -0.00370347 -0.00490268 0.0609813 -0.0212181 -0.0586705 -0.0116363 0.0455268 -0.0231723 -0.0765449 0.0424129 0.0952834 -0.0524179 -0.0532424 0.0913574 -0.0528437 3.18148e-05 -0.0934856 0.088181
round 0.0254885 0.0130014 0.0547919 0.0157539 0.0742521 -0.0198988 0.123231 0.102008 -0.0684443 0.137835 -0.0371018 -0.143394 -0.0547159 0.102631 -0.117897 0.151932 -0.0189875 0.032843 -0.0363884 -0.0307895 0.0718485 -0.161499 -0.0788204 0.0963677 -0.133063 -0.0184751 0.13304 -0.0217578 0.0802945 0.0895557 -0.020404 0.0796287 -0.13433 -0.0336079 0.0631983 0.0458673 -0.0144157 0.0561312 0.123369 -0.0893829 -0.0702432 -0.165324 0.148752 -0.117045 0.0612734 0.0122421 -0.080185 -0.0668523 0.056637 -0.0634921 -0.0282659 0.0621723 0.0297466 0.160225 -0.0726178 -0.133186 0.0882946 0.119825 -0.0436008 0.0795744 -0.0824348 -0.0365424 0.0951448 -0.0230133 -0.173355 0.0612113 0.130301 -0.0646345 -0.112254 -0.0422513 0.0632546 0.0785492 0.0276385 0.139685 0.024928 0.0330478 -0.0398238 -0.139971 -0.0449024 0.0530223 0.129994 0.0183953 0.026588 0.0822706 0.013455 -0.115446 0.0848294 -0.120079 0.0210162 -0.000439708 -0.0799606 -0.0283496 -0.0790722 -0.137822 0.131501 -0.0906118 -0.0125781 -0.00345883 0.0479302 -0.138459
brave -0.0293258 0.0978074 -0.0481017 0.0729992 0.0281485 0.038413 -0.0165072 0.0319852 -0.0942918 0.0126418 -0.000481562 0.0695387 0.071622 0.0421428 -0.0356108 0.0162477 0.0693555 -0.0292914 0.107264 0.111841 0.00066434 -0.0834006 0.0593612 0.0153082 -0.0214304 0.0509427 0.0335478 0.0090613 0.0549394 0.0181959 -0.0351394 0.0579144 -0.0216454 -0.0343717 0.0480541 -0.0662366 0.00605721 -0.106898 -0.0657101 0.0855889 -0.0202278 -0.0714302 -0.0671512 0.0110345 0.0830228 -0.0442235 0.0669792 -0.0283244 -0.0792278 0.016109 0.0592242 0.0240751 -0.074265 0.00723346 0.12109 -0.0330441 -0.021781 -0.0212137 0.0701577 0.0501945 0.0672408 0.0420957 -0.0430026 -0.0127842 0.0515625 0.123437 0.0207765 -0.00319085 0.0986357 0.098847 0.0296282 -0.107101 0.0206689 0.0898589 0.0683232 -0.00123783 -0.0141951 -0.0555933 0.063977 0.0755142 0.0964817 0.0373778 0.00348684 0.100472 0.0700638 -0.0269708 -0.114968 0.0673339 -0.0626984 -0.0233192 -0.0208507 0.0434565 0.0472853 0.143943 0.0246123 0.0834873 -0.0266868 0.0581044 0.107088 -0.0429135
ten 0.0413943 0.0459873 -0.00312087 -0.0783419 0.00880777 -0.0603984 -0.0576085 0.00336464 0.0821517 -0.00292227 0.0241238 0.014758 -0.118498 0.0569853 -0.0340567 -0.0103489 -0.0512815 -0.0804361 0.0346394 -0.0276377 -0.0669882 -0.00332213 -0.0358527 -0.0143699 0.00220725 0.0230408 0.0419443 0.0282787 -0.12814 0.0290066 -0.0748799 0.027904 0.117976 -0.0193672 -0.0771251 0.0303312 0.0646186 -0.0785824 0.0260044 -0.0231188 -0.0823557 0.012378 0.00994562 0.0935962 0.0126495 -0.0108782 -0.0801793 -0.0192363 0.0636356 -0.102261 -0.0262555 -0.0731544 0.0134674 -0.0970825 0.0737341 -0.102158 -0.0226006 -0.0845838 -0.0144133 -0.0717653 0.0587167 -0.0128065 0.119182 0.045125 -0.0871262 0.0568071 0.0115178 -0.0674857 0.124213 0.02825 0.0116963 -0.0355697 -0.0857662 -0.0705974 0.0837113 -0.00198019 0.0265394 0.051036 0.0589226 0.0397257 0.0839995 -0.0180034 0.0477247 0.0547067 -0.0500235 0.0159554 -0.0081993 -0.0420369 -0.0375154 -0.120398 0.0879634 -0.0043096 -0.0333498 0.0495915 0.0149307 -0.0754589 -0.0301795 -0.00107252 0.0919278 0.106613
tired -0.0230321 0.129387 -0.0358014 -0.012238 0.00671829 0.0409887 0.0511577 -0.00770944 -0.0223361 0.0981978 0.0565646 0.0138607 0.0204922 0.0135828 -0.0695828 -0.0511424 -0.00771336 0.112899 -0.0591066 -0.0210177 -0.0614625 0.0691718 0.0669391 0.0813935 0.0301377 -0.00375847 -0.0559714 -0.00188157 0.0422418 0.103317 -0.00815725 -0.0311793 0.0394443 0.074783 0.0651248 0.0824818 0.0615428 -0.0411504 -0.0857037 -0.0345609 0.0898613 0.0773647 0.0295049 0.0745994 -0.041294 -0.0730792 0.0165428 0.101563 -0.0895523 0.117136 0.0221994 -0.0413015 0.0272889 0.0384438 0.0604994 -0.00138649 -0.0457263 0.0436561 0.112488 -0.0499645 0.0954982 -0.0981649 -0.100519 0.1349 0.00598844 0.0656948 -0.0687331 -0.0430093 -0.00210631 0.0150937 -0.0638087 0.00979658 -0.0903707 -0.00598857 -0.0467468 -0.0336899 0.0316978 0.117332 0.00951662 -0.102943 -0.0979326 -0.0204515 -0.00438586 0.00538675 -0.0520323 0.062259 0.00550314 -0.0651972 0.110593 0.101051 0.0325149 -0.0122681 -0.0635018 -0.0371106 -0.04881 -0.107213 0.0623424 -0.031275 -0.0675445 0.120154
tea 0.0320238 -0.0134468 -0.0305171 0.0831009 0.0379788 -0.0512793 -0.0985601 -0.00172779 0.0509124 0.0108938 -0.0103142 -0.0297412 -0.106906 0.0480618 0.00848121 -0.0396264 0.0144301 0.0849808 -0.0934489 0.0900527 0.0937878 -0.0506776 -0.0729019 0.0184746 0.0512896 -0.0163058 -0.0466525 0.0342568 0.00249851 -0.0158216 -0.115718 0.0397216 0.0502049 -0.0386872 0.0146625 0.0174411 0.0591029 0.0302746 -0.110797 0.0134535 -0.0605175 -0.0355338 -0.000312884 0.0122599 0.0416829 -0.0175294 -0.00714855 -0.0397367 0.0604968 0.0665899 -0.0708256 0.0720552 0.105975 0.0175633 0.0428223 0.0618399 0.0989026 -0.0229104 -0.0364391 0.104354 -0.075059 -0.0333855 -0.0401417 -0.0224002 -0.110472 -0.0505973 -0.0414267 0.0451779 -0.0716126 -0.00645847 0.0734315 -0.000975777 -0.114881 0.0517871 -0.0392845 -0.0358377 0.0157336 -0.112653 -0.0733736 0.0605157 0.0842033 0.00537997 0.0603503 0.0912464 0.008104 -0.00529763 0.0569986 0.00473983 0.0354687 0.0215797 0.0101161 0.00781787 0.0248127 0.0350601 -0.0870714 0.0861025 -0.00779963 -0.0213968 0.0211435 -0.0631309
pleasure -0.0563909 0.0784315 0.0614579 0.0787652 0.0463411 -0.0275745 -0.00534284 -0.0442785 0.0728918 0.072393 -0.00936131 -0.00401887 -0.0743487 -0.00805955 -0.00270422 0.0231889 0.00155174 0.012804 0.0698771 -0.0722311 0.0554511 0.0587406 -0.0747771 0.00371344 -0.0176289 0.0342147 0.0871557 -0.00972906 -0.0775657 -0.047288 -0.0332411 -0.0482324 0.0376609 -0.0506821 0.0207283 0.0108887 0.00335506 0.0130577 0.0667181 -0.0323898 0.04655 0.0159963 -0.0488827 0.0382117 0.0780523 -0.0253248 0.0477541 0.0371413 6.59167e-05 0.0464116 -0.0695603 -0.0235383 -0.0444147 -0.0461647 -0.0752161 -0.0444536 0.0614283 -0.0382847 0.0541389 -0.105205 0.066844 -0.00765279 -0.0450944 0.00573109 -0.0489791 0.0104229 0.0379075 -0.0458386 0.0848303 -0.0851163 -0.0460623 6.18347e-05 -0.0936704 -0.00882408 -0.0321986 -0.0690275 -0.0225736 -0.0409728 -0.00593998 0.0206324 0.069352 0.0306878 0.0154765 -0.032756 -0.0236768 -0.0799249 0.0708904 -0.00331965 0.00793594 -0.00162943 0.00344584 -0.0564849 -0.0911646 0.017973 -0.0207292 0.0719967 -0.0250277 0.00416674 0.0750761 -0.0371488
past 0.0436651 -0.0761507 -0.052543 0.0915597 -0.0534636 0.0372503 0.0168708 0.0612657 0.0157254 0.00951155 0.0225307 0.0757146 0.0385398 -0.0939447 0.0305375 0.102493 0.0734223 0.018292 0.0455668 -0.0783205 -0.0457591 0.0752924 0.00519983 -0.0608857 -0.0404734 0.0508259 -0.0537934 -0.0161208 0.0296711 -0.0222839 -0.0311217 -0.007618 0.0379341 -0.0248649 -0.0734996 0.0323587 0.0836754 -0.00909794 0.101008 0.0502747 -0.0826795 0.00664428 0.070683 0.0643281 0.0128589 -0.0314515 -0.0385993 -0.0598185 -0.0850483 0.0347044 0.00530325 -0.0341314 -0.0468308 0.0440088 -0.0331731 0.0399494 -0.0418254 0.0668408 -0.0257964 -0.0601729 0.00392271 -0.0384036 -0.0309396 0.00763483 -0.0563981 -0.0261188 0.0561907 0.0876858 0.0646883 0.0765058 -0.0494913 0.0781895 -0.0410001 -0.0793674 -0.00154769 0.00289834 -0.0111232 -0.0746531 -0.0567203 -0.0144266 0.061867 -0.0997526 -0.0659611 0.0480955 -0.0703882 0.0518811 0.0556225 0.0244006 0.0389289 -0.0963775 -0.0369015 -0.0414744 0.0771567 -0.00281737 0.0573581 -0.0137712 -0.0943096 -0.0581486 0.100532 0.0246049
likely 0.0844273 0.0808017 0.103028 -0.0483366 0.0052819 -0.059406 0.00671351 -0.056115 -0.000554177 0.0401491 -0.0933126 -0.00680417 -0.0680812 0.0604653 -0.0361248 -0.00253006 0.0015251 -0.0634355 -0.0640613 -0.040213 0.0314059 0.0286738 0.101778 -0.0185207 -0.039101 0.0261042 -0.0678552 -0.0156269 0.105249 0.0820395 -0.011092 0.0524208 0.0238655 0.0667305 0.0173822 0.0695269 -0.0307435 0.0198478 -0.0180538 -0.0489852 -0.0672477 -0.00346892 0.000611831 -0.0449199 -0.00143609 0.0561045 -0.0218234 0.0036385 -0.0276186 -0.0206091 0.0675156 -0.0487076 -0.0612243 -0.054904 0.00274373 0.0891036 -0.0851501 0.0538154 -0.0856588 -0.0437128 0.0676936 -0.0234183 -0.0794678 0.013648 0.0215036 -0.0185141 0.0218599 -0.0371882 0.0857928 -0.0281354 -0.0751887 0.0737256 -0.0059522 0.0444894 0.10158 0.0182101 0.00665209 -0.0677732 -0.0420608 -0.0754202 0.0762098 0.00172527 -0.0652624 0.0390868 -0.0739079 0.0141202 0.0235728 -0.104565 -0.0500184 0.0399233 -0.0571807 -0.0136185 0.0561045 0.0214635 0.0527475 -0.0175706 0.0615185 0.00720367 -0.0647315 0.0630119
cost 0.0644372 -0.00391078 0.0157953 0.0587347 -0.0307783 0.0354199 0.0115009 -0.0336581 -0.0250713 -0.081812 -0.0530176 -0.024808 0.0197823 0.049217 0.00478382 -0.0465731 0.0707042 -0.040488 0.0251274 0.051331 0.0213642 0.0480439 -0.0172701 -0.0679102 0.0670035 0.0585201 -0.00910597 -0.0626065 -0.0322362 0.0744993 -0.0181957 0.0747421 0.0119924 0.0444126 0.0626647 -0.06035 -0.0613782 0.0114953 0.067551 -0.0424831 0.104391 -0.0793134 -0.0213709 -0.0601741 0.113099 0.0664899 0.0699955 -0.0576583 -0.0200285 0.032465 0.0418242 0.096141 0.073097 0.000720494 0.0662239 0.0690731 0.0594215 -0.0408202 0.0185874 0.0435494 -0.0602939 0.0654451 0.0490542 -0.0813858 0.0351258 0.0335523 -0.014803 -0.0332586 0.0677411 0.0536997 -0.0576826 -0.0603493 -0.036757 -0.0395987 0.0681501 -0.052986 0.0662391 0.0691167 0.110501 0.00398894 0.0170419 0.105839 0.00818334 0.10252 0.104537 -0.054074 -0.0754321 0.0928671 0.000566218 -0.00296602 0.117527 -0.00633105 0.0392148 0.068213 0.0557748 0.0197242 -0.0558698 0.0579728 0.0795355 0.107502
large -0.0167955 -0.0681015 -0.0260161 -0.0472233 0.0315747 0.0978102 -0.0846669 0.077268 -0.0533226 -0.0721462 -0.0566481 0.0419691 -0.0542301 -0.0848683 0.00501889 0.0790994 -0.0936374 0.0500288 0.0841305 0.0240392 0.0562847 -0.0676846 0.0646659 -0.038472 -0.0472818 0.0422601 0.0390735 -0.0771157 -0.00354333 0.00057206 -0.0494518 -0.04127 0.0281151 -0.0579864 -0.0823198 -0.0369892 0.00352094 0.079252 0.0494553 0.0538786 -0.0712226 0.0601346 -0.0259553 -0.031083 -0.0421972 -0.0456263 0.0351204 0.0889569 0.020873 -0.0862727 0.0138765 0.0889053 0.00108327 -0.0545242 -0.0587017 -0.0176252 -0.0499641 0.000651036 -0.00302311 -0.0381689 -0.00283096 -0.0742662 -0.0298524 0.0766268 -0.0569488 -0.0551118 0.0387122 -0.0630035 -0.0276197 0.038015 0.0222518 0.0595721 0.0137272 0.0815435 0.0174374 -0.0704223 -0.0712675 -0.0401645 0.0488921 0.0571164 -0.0376994 0.0577335 -0.104947 -0.0528293 0.00930322 -0.0849218 0.0687971 -0.0982467 0.0928423 -9.19117e-05 -0.0295561 -0.0787953 -0.0624781 0.0053932 -0.0146236 0.0428481 -0.03658 0.0889261 0.0229683 -0.0783053
longitude 0.0324098 -0.0373113 -0.00153842 -0.0553564 0.115926 0.0571249 -0.063726 0.0143907 -0.0968936 -0.0379846 0.130711 -0.00811168 -0.0171119 -0.0841343 -0.0352054 -0.0810374 -0.0662332 0.0157338 0.0105756 -0.0321358 0.00789768 0.103774 0.0384872 0.0357186 0.0554199 0.148669 -0.100104 -0.0275453 -0.0709923 0.0620214 -0.0906746 -0.0464751 -0.0381063 0.0391167 0.0208459 0.0318983 -0.0685667 0.0068877 -0.0375833 0.0520563 -0.0184927 0.00938481 -0.0202779 -0.0077085 0.130576 0.119116 0.00204002 -0.0568496 0.0597339 -0.0438393 -0.0253649 -0.0692719 0.0350132 0.146822 0.0622054 -0.00053916 0.104812 -0.0755644 -0.0379527 0.0753983 -0.00301719 0.116717 0.0384758 -0.0752915 -0.0257504 -0.0454523 -0.0795244 0.0336729 0.015923 0.0461812 -0.00710991 -0.0370021 -0.0883113 0.102264 -0.00509719 -0.104355 -0.0591506 -0.0261661 0.118857 -0.132984 -0.12841 0.0392115 -0.0900436 -0.103597 -0.0263627 0.0176318 -0.0102266 -0.0365529 -0.100801 0.0911331 -0.039271 0.00271915 0.0171446 -0.0140867 -0.058247 0.0260227 0.00235336 -0.0881615 -0.0568241 0.0709834
earth 0.032204 0.0495463 -0.00224018 0.0602708 -0.0110674 0.0367276 0.117355 0.0698142 -0.0617572 -0.0347846 -0.115447 0.0539186 0.0278661 -0.0548644 0.00742917 -0.0564685 0.0241548 0.0390032 -0.125333 -0.000507583 0.132462 -0.043413 -0.0576307 -0.0545794 0.0924812 -0.0184121 0.0897713 0.0834523 0.00145023 -0.00132528 0.00168441 -0.0975616 -0.0440039 0.0192304 0.000813336 0.061265 0.0279625 0.00521017 0.00123811 -0.081043 0.00262008 0.126029 -0.0529816 0.00280121 -0.104262 0.0163433 -0.0332538 0.00980545 0.122627 0.0222922 -0.042941 -0.0308958 -0.00869898 -0.0638465 0.0822351 0.00332854 -0.0126867 0.11025 0.0876173 0.0358746 0.0780827 0.0405156 -0.0120117 -0.0407685 -0.149821 0.0300918 0.0531751 0.0504617 -0.0310856 0.0424495 6.05023e-05 -0.0313725 -0.0567782 0.165822 0.00619293 0.0186688 -0.0992004 -0.0783093 0.00569564 0.027024 0.117269 0.0199606 0.00784517 0.095411 -0.0842522 -0.141394 -0.050607 0.0446312 -0.0104577 0.0058727 0.0246108 0.0114795 0.0080225 0.101896 0.0955514 -0.0295446 -0.0637518 -0.020775 -0.0333553 -0.0284086
further 0.101531 0.0139755 0.0602333 0.110463 -0.0459203 0.0134445 -0.0237453 0.0161248 -0.00599904 -0.0556626 0.0299981 0.0494949 0.0265527 0.0366705 0.0176848 0.0599008 -0.0569143 0.0447129 0.0239555 0.0498235 -0.0366399 0.0766888 0.0608717 0.0215287 -0.0706839 -0.0700361 0.031762 0.100144 0.0705635 -0.0361882 -0.0184743 0.0425756 0.00778414 0.0756171 0.0351027 0.0298563 -0.0284815 0.0576583 -0.0104437 0.0446621 0.0254059 0.0826616 0.0301551 -0.0342651 0.0760131 -0.015006 -0.0140321 0.0861579 -0.0475165 0.0607643 -0.0339285 0.0715189 -0.0378544 -0.0543438 0.00881347 -0.0941808 -0.0396103 0.0636829 -0.0934673 -0.0441756 0.0378489 0.0691135 0.102674 -0.0893701 -0.0576971 -0.0564513 -0.0476923 -0.0793197 -0.0252441 0.0246123 -0.00240947 -0.0641309 0.0684492 -0.0874199 0.02011 -0.0161143 0.0543459 0.0440503 -0.0159335 0.0161062 0.0134087 -0.0669145 0.0546638 -0.073452 0.00138162 -0.0808714 -0.0109229 -0.0717794 0.0597593 -0.100745 -0.0237339 0.0175791 -0.0655941 0.0659257 0.0581926 -0.0218007 0.0503676 -0.0423572 -0.0209819 0.019846
curtseying 0.0766216 -0.0884823 -0.0492188 -0.0493572 -0.0710911 -0.0235584 0.0234951 -0.0328925 0.0978218 -0.0822499 0.0601944 -0.0705929 0.0412891 0.0359843 0.0459579 0.0727518 0.0148067 -0.0249142 -0.046661 0.0896957 -0.034689 0.039882 0.0112551 -0.100205 0.0626509 -0.020413 -0.00156811 0.0292835 0.00784055 -0.041197 -0.00362739 -0.001136 -0.0116671 0.0714089 -0.074755 0.0799617 -0.0973814 -0.0877297 -0.0726041 -0.00892883 -0.0067311 0.00210017 0.0553919 0.0891661 0.0457743 0.0487542 -0.0671799 0.00964041 -0.00473714 0.00185352 0.03816 -0.0183471 -0.10802 -0.10199 -0.0415418 -0.000233343 -0.0709757 0.0065522 0.0614436 0.0211797 -0.0799519 0.0668667 -0.0208286 0.123461 -0.0405563 -0.0279077 -0.0736441 0.0310992 -0.0378027 -0.0426472 0.100324 0.0434586 0.0654379 0.00251335 0.00892546 0.0150649 -0.0462239 -0.00176829 -0.0205353 0.0212479 0.10237 -0.0168299 -0.0777658 -0.0299023 0.056321 -0.0121527 0.076076 0.0846221 -0.0544375 -0.0794419 -0.0335643 0.0450075 0.0551483 0.070858 0.0355447 0.103152 -0.0394614 0.03209 -0.0126116 -0.0263904
even 0.101421 0.122012 -0.097005 -0.072615 0.204377 0.0394825 0.0155576 -0.150559 -0.0822211 0.00020302 0.0776786 0.0868145 0.00215615 -0.15857 0.0358526 0.00577658 -0.026525 0.0605041 0.0442884 0.0824021 0.0244162 -0.0962604 -0.0361615 -0.0162677 0.0802756 -0.0155069 0.121949 0.0135385 0.0429249 -0.013646 -0.0159661 0.0565236 0.0365601 -0.0163812 0.0639884 -0.094072 -0.0643599 -0.0284571 0.0288427 0.0462193 0.0659039 0.0498837 0.069575 0.00745281 0.0819315 0.139827 -0.0863376 0.036965 0.037926 -0.018971 -0.114124 -0.0701032 0.0871625 -0.0682879 0.00145475 -0.0758132 0.0913964 0.0383498 -0.00604345 0.0832254 0.0272339 0.0961771 -0.075242 0.0630203 0.121087 -0.00528043 -0.0229647 -0.0789745 0.122483 -0.129417 -0.0807537 -0.014111 -0.00641202 0.0826536 -0.0448343 -0.0400795 0.0508578 -0.0231867 -0.0395494 -0.00906706 0.0627467 -0.0533437 -0.0260664 0.0066446 0.0532528 0.112198 0.108878 -0.0739518 -0.105541 0.0414751 0.109821 0.0160167 -0.112171 -0.0661086 -0.137114 0.0761021 -0.0753075 -0.0610352 0.0312178 0.0179427
what 0.154833 -0.170491 0.106371 0.0475289 -0.0226516 0.0624004 0.0653807 -0.0273225 0.0659156 -0.0386279 -0.0760873 -0.0899545 -0.00259504 -0.0236837 -0.0321727 -0.0176481 -0.00643666 -0.0778907 0.0682008 -0.0819938 0.0106276 -0.0176575 -0.0779632 0.12092 -0.0522816 0.041498 0.0254062 0.0509275 -0.146496 0.0590192 0.0883633 -0.0663333 -0.0350964 -0.040665 0.0810369 0.127304 -0.0644839 -0.103205 0.112945 -0.0221861 -0.0562078 0.0694652 0.142534 -0.114755 -0.0175872 0.0283987 -0.00933909 0.0600941 0.0100865 -0.17436 0.119469 -0.00242427 -0.0633701 0.00989607 -0.154902 -0.114145 0.0769376 0.0469039 -0.0768684 -0.0762492 0.00147581 -0.102181 -0.00613581 -0.0109576 -0.0152436 -0.0668415 0.125597 0.162624 -0.133002 0.0684811 -3.52888e-05 -0.0018104 -0.0182864 0.150364 -0.0841488 0.139769 -0.0638033 -0.00814951 -0.132699 0.0253063 0.106705 0.101821 0.061245 0.026616 0.0224635 0.0361239 0.0670086 0.00864818 0.0143799 -0.134354 0.0274018 0.191063 -0.0406027 -0.12872 0.105987 -0.115252 -0.0970066 -0.0867497 -0.0870039 -0.0861678
deeply -0.0533074 0.0141485 0.0455323 -0.0151833 0.0253427 0.0718477 -0.0155893 -0.112918 0.12269 0.0589641 0.0856135 0.000334109 -0.00653054 -0.0190793 -0.0546869 0.00674616 -0.0407243 0.083895 0.0785322 -0.0250171 -0.0308765 -0.0842037 -0.0178091 0.0913169 0.0506786 -0.14803 -0.119975 9.29295e-05 -0.0457658 0.0535495 -0.0471836 -0.0550842 -0.0960352 0.0589851 0.0436688 0.0968481 -0.0325613 -0.0212205 -0.0273176 -0.118688 -0.0378326 0.00779099 -0.0162098 0.0755752 -0.010983 0.026251 0.03325 -0.00753711 -0.0602885 0.0661219 0.0741905 0.055835 0.00743735 0.0330661 -0.0953303 -0.00270713 -0.0839706 -0.00596185 -0.0490466 -0.0588362 -0.0749147 -0.0336485 0.0762084 0.0898943 0.0333088 -0.0907798 -0.0783352 -0.0619205 0.0940853 -0.0258373 -0.0994402 -0.0696875 0.0317218 -0.0707077 -0.0048261 0.00499744 0.0372494 -0.0339121 -0.0172488 0.0404207 0.0129902 0.0922115 0.0364151 0.0215436 -0.0102412 0.0898979 -0.0194564 -0.0147825 -0.0137913 0.0393289 -0.0785854 0.0495356 -0.0541002 -0.0022311 0.079567 0.0612239 0.101172 0.0488881 0.036974 -0.0124221
poison -0.048189 -0.0316961 -0.0214178 -0.0838888 0.0943546 -0.0827205 -0.0891899 0.0512449 -0.00915142 0.0508704 -0.0985027 -0.0135783 -0.0905263 -0.0454731 -0.183424 -0.102021 0.0456387 -0.0665718 0.0543253 0.13784 -0.00388671 0.00494553 -0.0196997 -0.0875688 0.0221636 -0.0535052 -0.0425426 -0.0168541 -0.0439086 -0.00158769 -0.137648 0.032648 0.0686661 0.0190858 -0.12689 -0.0300316 0.0281845 -0.000135542 -0.0919661 -0.0332097 0.0027763 0.102237 -0.12029 -0.0247315 -0.0476893 0.0464816 -0.0120424 -0.122108 0.112277 -0.0645487 -0.0462594 -0.0856445 0.0126735 -0.162763 0.0745397 0.117254 0.0724606 -0.0206526 0.013307 0.174 -0.194993 0.0752533 -0.12251 -0.0916756 0.0335861 -0.017024 -0.117722 -0.0563943 -0.109311 0.0900077 -0.0498844 0.0361011 -0.0259585 -0.114782 0.0350484 0.0153914 0.0154185 0.0692995 -0.0310126 0.0675841 -0.00541773 0.0495778 0.125363 0.0250318 -0.0799738 -0.0484028 0.0175908 0.0594198 -0.0768535 -0.0132038 0.0336506 -0.065071 0.0322617 0.0716111 0.00120299 -0.0185526 0.0400363 -0.0282675 0.0124931 -0.0258114
children 0.000332488 0.0185065 -0.0738994 0.0227983 -0.0331207 0.0546365 0.0207082 -0.0437729 0.123905 0.101146 0.00952548 0.0661182 -0.0084694 0.0134896 0.066789 -0.0920336 -0.067192 0.0686932 0.0759556 0.10632 -0.0486434 -0.0754018 -0.0560986 -0.0549506 -0.0316466 -0.0485803 0.0240571 0.0132748 -0.108083 0.0554076 -0.0692629 0.0267669 0.0881243 0.0415711 -0.0298888 -0.0232856 -0.102612 0.0654062 -0.117856 -0.065873 0.0202248 0.0381362 -0.0284231 0.0661191 0.0118683 -0.075908 0.0510694 -0.0512116 -0.0613718 -0.000673604 0.0366573 -0.0926647 -0.102923 0.0405607 -0.0633514 -0.0709493 -0.0156147 0.0463711 -0.0531297 0.0986623 -0.102349 -0.0431042 -0.091774 0.0359047 0.00158672 0.000160346 -0.0581551 0.0353522 -0.0324952 0.0951966 0.0608434 0.00459096 -0.00736562 0.0174064 0.00429349 0.0140651 0.0851667 -0.0642368 0.0077359 -0.0353856 0.0263557 -0.108634 0.0878137 0.0865957 0.0348309 -0.00962492 0.0454955 -0.00894448 0.10338 -0.0629539 0.0663995 -0.0438524 -0.0277509 0.0502966 -0.0617519 0.040401 0.0378198 0.0311532 0.087881 0.0399294
waiting -0.0567921 0.0556613 0.122831 -0.0300972 -0.0014412 -0.0218952 0.014467 0.0399633 -0.0107532 -0.0126454 0.10919 0.0570597 -0.00185406 0.0235829 -0.00992988 -0.0831371 -0.0361943 -0.0654743 -0.102778 -0.00184961 0.0916535 -0.129094 -0.0987884 0.0203358 -0.0277461 0.0416127 0.116481 0.0255174 -0.0962956 0.022694 0.0255026 0.0542314 -0.115152 -0.0405946 0.0565885 0.0962835 -0.0928102 0.0405589 -0.0699853 -0.0434587 0.120032 0.0136077 -0.0273947 0.0206331 0.0491838 -0.0972368 0.0341704 -0.0114872 0.0623312 -0.026985 0.0294052 0.10618 0.0785862 0.0665088 0.0824897 -0.00997398 0.0414958 -0.00685341 -0.0491634 9.13774e-05 0.0965262 -0.141876 0.129283 0.0430271 0.0679486 -0.142877 0.134701 -0.130042 0.0253873 -0.0646446 -0.0508728 0.107773 -0.106619 -0.00353 0.0515178 0.0397403 0.0566848 -0.042832 -0.0578625 -0.00392581 -0.0601807 -0.0257328 -0.0959312 -0.0632779 -0.0251859 0.00643144 0.0211391 -0.0231715 -0.0905253 0.0718148 0.0751944 -0.053591 0.0939023 -0.0083296 0.0126753 0.018184 0.0474227 0.0298416 0.0519448 -0.0142777
new -0.000879931 -0.0867656 -0.125749 -0.00751456 0.00810583 0.0967949 0.0274455 0.0479349 0.0336466 -0.0605661 -0.0559315 0.0558159 -0.0553732 -0.0109648 -0.104505 -0.0266335 0.0814682 0.0271908 -0.0354294 0.0460697 0.0714836 0.00782577 -0.0815686 0.0471403 -0.00650934 0.0112593 -0.0115365 -0.0144147 -0.0852918 0.0240106 -0.0898364 0.07578 0.0184047 -0.0612969 -0.0694137 -0.0907461 0.00190281 -0.0217177 -0.00219333 0.0391734 0.0882396 0.0586469 -0.0581752 0.0634083 -0.050415 0.0423794 -0.0539768 0.103752 -0.0305414 -0.0452178 0.0474939 0.00133696 0.0663315 -0.0942974 0.0280192 -0.0404467 0.0944786 -0.0756366 0.0582238 0.121787 -0.0475862 -0.013095 -0.0923434 0.0404767 0.0135026 0.0202709 -0.0686625 0.0348609 0.00444161 0.073931 -0.0867803 -0.0718425 -0.0790229 0.00630835 0.105568 -0.0445381 -0.101 -0.00063068 0.0490345 -0.0859385 0.00414026 0.0713584 -0.0238955 0.0635391 0.0116124 -0.0120992 -0.0341033 0.0791226 -0.0124454 0.0793644 0.0123261 0.0881543 -0.0132545 0.0551852 -0.0393666 0.0600831 -0.0181674 -0.0999878 -0.0404884 -0.0454359
falling -0.0654379 -0.0801731 0.0777468 0.0335039 -0.0165839 0.115139 -0.0290985 -0.0489647 0.027458 0.0343293 -0.0461372 -0.0665897 -0.0861535 -0.0736186 0.0198439 -0.0470038 -0.0851588 0.0415673 -0.0336323 0.122506 -0.0654257 -0.0384878 -0.0793009 -0.0992275 -0.0187185 -0.0832892 0.036801 0.0484726 0.0292024 -0.0257623 0.0110112 0.0421042 0.0658403 -0.0573929 -0.00713518 -0.0459532 -0.103903 0.0434264 0.0338577 0.0332109 0.109663 -0.0312463 -0.0375255 0.0282608 0.0117416 0.0146935 0.0669679 0.0444443 -0.0561357 0.112516 -0.0945386 0.0769421 0.0654549 0.0434439 0.0201892 0.0209841 0.0361997 -0.0291944 -0.0892613 -0.00342727 -0.0121266 -0.0530074 0.0681276 -0.058577 0.0597252 -0.0111075 0.00785863 -0.0325153 0.0103859 0.0270825 0.00650349 -0.046556 -0.123205 0.102691 0.108913 0.0780271 0.0571322 0.0923012 0.0908656 -0.106102 0.0429467 -0.0366979 -0.0159647 -0.017103 0.0815544 0.0185608 -0.0322784 0.0599354 -0.0508471 -0.000602828 -0.0301484 0.102599 0.0714311 0.122526 -0.0994593 0.110737 -0.07364 -0.00385177 -0.099999 0.119847
row 0.02677 -0.0305854 0.046177 -0.0274485 0.0479232 0.00216827 0.070398 -0.0529638 -0.0597312 -0.0696619 0.0658689 -0.0719626 0.0699727 1.46921e-05 -0.0656416 0.031445 0.0222296 0.068168 -0.0050615 0.100298 0.0752981 0.0223572 0.0463135 -0.0457323 -0.0694512 -0.00419516 -0.0773592 -0.0231572 0.0143294 -0.0840853 0.0653622 0.0334197 0.0647694 -0.0562012 0.0577246 -0.0106958 -0.0477483 0.100918 0.0615754 -0.0351967 0.0239344 -0.0548219 -0.0632744 -0.0502156 0.0163628 -0.0865385 0.069472 -0.0409614 0.0759512 -0.0732127 -0.0053534 -0.0727606 0.0836737 -0.0287266 -0.0152082 0.0427719 0.0463495 -0.020073 -0.0683021 0.013239 0.0931675 0.00492388 -0.0458899 0.00436211 0.0880238 0.000983739 0.051112 -0.0206159 0.0591212 -0.00946148 -0.0622192 0.112297 0.0277449 0.0686008 -0.025834 0.00497124 0.0766098 0.0208395 0.0776745 0.0431467 0.00427639 -0.00825908 -0.0597569 0.0965525 -0.0332001 0.0903029 -0.0725842 -0.0128128 0.0447306 0.0103799 -0.00799918 -0.0361137 0.0737348 0.0905088 0.0600907 0.0654416 0.00546058 0.0414344 -0.0463969 0.0424965
ever -0.0495351 -0.143168 -0.0300796 -0.0553416 0.0161656 0.047699 -0.00243235 -0.026134 0.0725453 -0.00345574 -0.0713617 -0.0754093 -0.0636575 -0.111429 -0.057766 -0.0458205 0.143448 -0.0593132 -0.00230079 0.0385 0.0299743 0.00383646 -0.047882 0.0330948 -0.048335 0.112851 0.14283 -0.0238762 -0.0841853 0.0319681 -0.0107564 -0.0251901 0.0695653 -0.0443586 -0.0728144 -0.118763 -0.000216699 -0.00610839 -0.00166505 -0.00872811 -0.0524073 0.112134 0.035669 0.0608667 0.113736 0.0279396 -0.0453422 -0.0921531 -0.078715 0.0651876 -0.0113567 -0.081262 -0.0580631 0.0702532 0.0715366 -0.0726729 0.0240306 -0.139382 -0.027257 0.0797403 0.038763 0.070412 -0.0580784 0.0920866 0.0125878 -0.127267 0.0451581 -0.101284 0.119068 0.100526 -0.0575878 -0.143679 -0.130311 -0.0177188 0.0189175 0.0599402 -0.0131192 -0.0705289 0.0101578 0.063032 -0.0135151 0.085339 0.00138999 0.105593 0.00131921 0.13714 0.0246172 0.0661197 -0.119333 -0.0696756 0.0165843 0.15658 0.043571 -0.0484777 -0.09011 0.137349 -0.148175 0.101046 0.0134344 0.024926
filled -0.108045 -0.0103614 -0.0809112 -0.0799176 -0.0613822 -0.0644648 -0.0709356 0.0354043 0.0246307 0.0401476 0.092772 0.0556436 0.0596322 0.0385181 0.00973434 0.00295791 0.0809475 -0.0117613 0.0110107 -0.0674153 -0.024655 -0.0863353 0.0378132 0.0419712 0.0992719 -0.0702265 -0.0852681 0.0310663 -0.0163075 0.0389411 -0.0232934 0.0703729 0.0880725 0.0475715 0.0144296 -0.0393669 -0.0278736 -0.0792529 -0.0866588 -0.0480395 0.0978263 0.0631068 0.0475257 0.0904689 -0.0152365 -0.0450341 -0.0995366 -0.0542374 -0.0393492 0.000198235 -0.0884924 0.0550869 0.0015054 0.0275064 -0.0606881 -0.0577442 -0.0600565 -0.0169505 -0.0331132 -0.0289239 -0.0985907 -0.00487015 -0.0186661 0.0532212 -0.0670707 0.010522 0.00167942 -0.0466886 0.0654859 -0.058564 0.0701283 -0.0436658 0.00763164 0.0355181 -0.0384298 -0.019875 0.0410339 -0.059528 0.106769 0.0472297 -0.0917452 0.0182909 -0.0426009 0.0862596 -0.0417033 0.0136983 -0.045151 0.0674349 -0.0314742 -0.0768434 0.0125641 -0.0091989 0.081869 0.0731672 0.059513 0.0221101 0.096689 0.0345302 -0.0207228 -0.0224706
lessons -0.0656664 -0.00846286 0.0806431 -0.0467887 -0.0987822 -0.106816 0.0361301 -0.0813367 -0.0708042 0.0362477 0.0561381 0.0840298 0.00400273 -0.0692498 0.0101952 -0.0295327 -0.0263948 -0.126245 -0.0722347 0.0375165 0.0700179 -0.0884776 0.113707 -0.0363361 -0.0494968 -0.0604 0.0949234 -0.0883091 0.0630193 -0.095802 0.131067 0.0305083 -0.0393605 -0.0192554 -0.0530654 -0.0193102 -0.0541452 0.091219 -0.00779692 0.103005 -0.0438867 -0.0947046 -0.0516608 0.0327644 0.0444957 0.0747965 0.0486826 0.0239504 0.0469536 0.0996935 0.0951252 0.0504597 0.0441316 0.114508 0.0510821 0.115142 -0.00233638 0.0623311 0.00652144 -0.0502658 0.0930287 -0.0839386 0.0214263 0.0585863 -0.0101513 -0.122893 0.107825 0.0123782 -0.0972593 0.0295083 -0.0256225 0.12169 0.0451145 -0.0820654 0.0463531 0.0585857 -0.0100767 -0.124415 0.0190641 -0.0605337 0.0450288 0.00996824 -0.108561 0.0392831 -0.0405497 0.0362424 0.0881718 -0.0472269 -0.0847493 0.0864603 0.0768386 -0.060921 0.0384272 -0.0706843 -0.0811635 0.0426217 0.118199 -0.119678 0.0334567 0.0936645
led 0.0585278 -0.00420527 -0.014001 -0.0542169 0.0742147 0.0387981 -0.0460992 -0.0711141 -0.0138116 0.0603022 -0.0105796 0.0265178 -0.0722522 -0.0647 0.0549755 -0.00595895 -0.00886781 -0.0826474 -0.011929 -0.0676787 -0.040905 0.0623275 0.0190144 0.0537205 0.0730257 -0.000766068 -0.0378459 0.0196761 -0.00271252 0.00856807 0.0571257 0.113505 0.0137907 -0.00769882 0.0593411 -0.102469 -0.0608659 0.0563084 0.0519677 -0.00710031 -0.0844988 0.0020574 -0.00405164 0.0137474 -0.0908806 0.00918115 0.0409374 0.0364327 -0.0791829 -0.119349 0.0277238 -0.0552709 0.0942827 -0.0512901 -0.0547178 -0.0218774 0.0210737 0.0373052 0.118722 0.0299533 0.0374434 0.0973169 -0.0505632 -0.0288276 -0.0570695 -0.0478374 0.00160661 0.0477841 -0.128325 -0.0651814 -0.0448547 -0.0293187 0.0997307 0.0656931 0.0531928 -0.0546478 0.0291889 0.0508342 0.0583788 -0.0611843 0.0784909 -0.0107538 0.0131093 0.0105837 -0.0297208 0.0602849 0.100621 0.0310238 -0.0136347 -0.0656176 -0.0607565 -0.0395965 0.042369 0.0614696 0.0430073 -0.0158338 0.0646323 0.0260908 0.071649 -0.0618717
beasts 0.048201 -0.00820258 -0.0992274 0.1036 -0.0354214 -0.00915305 0.0519752 0.083595 -0.0495368 0.0625523 0.0211287 0.024586 0.0158993 0.040113 0.0816881 -0.00438091 0.0303712 0.0478429 0.00963514 -0.0311263 -0.0360658 -0.0193517 0.0340562 0.083025 -0.0195616 -0.0693811 -0.0290096 0.0499842 -0.0651888 0.0177885 -0.0440001 -0.0242242 0.00916897 0.0470518 0.0866328 0.11228 -0.0140291 -0.0536323 0.0045352 -0.0271545 0.021422 -0.0502517 -0.0450025 0.0361537 -0.0726101 -0.0405641 0.0633942 0.1032 0.0587141 0.0352782 0.058155 0.0481093 0.0214689 -0.0970815 -0.0333486 -0.0923594 -0.102398 -0.0101126 0.0257872 0.112297 0.0654122 -0.0689521 -0.0787301 -0.00915421 -0.0168348 0.0730393 -0.0314043 0.0518056 0.0293341 -0.0828969 -0.0816954 -0.0873375 -0.0627217 0.0882676 -0.0620916 0.0889383 0.0070298 0.0652389 -0.0299989 -0.0452425 0.0249458 0.0593315 0.0723375 0.0675844 -0.0775177 0.0205332 -0.0154974 0.0721014 -0.0523634 -0.0548262 0.0327903 -0.0073613 -0.0975418 -0.0496191 -0.0160133 0.0197021 -0.0804241 0.000651269 0.071673 0.016933
never 0.0124341 -0.105758 -0.0429928 -0.0496311 0.00832177 0.016304 0.012323 0.113582 -0.0619912 -0.0799274 0.0576537 -0.0652165 -0.11828 -0.0267137 -0.0732277 0.120648 -0.0816375 0.00369125 -0.00528952 -0.0262766 -0.0481567 -0.102326 -0.0461741 -0.0419733 -0.0099695 -0.0491508 0.0494703 0.0754088 -0.0396793 -0.0222437 0.0728298 0.0263936 -0.0367144 0.0783173 0.0352198 0.0605519 -0.0601568 -0.120747 -0.00761997 0.00930894 -0.00159012 0.0134962 0.0583338 -0.00657123 0.0289637 0.0743688 0.11477 0.109293 0.00795344 -0.0291869 0.0132313 -0.0239554 -0.091792 -0.0183234 0.00670448 -0.0722591 -0.0321874 -0.108784 0.0406635 0.0184017 0.0060722 -0.119215 0.0713164 0.0621334 -0.125062 0.0178198 -0.00139298 -0.0545808 -0.0575657 0.0736853 -0.0661205 -0.057257 0.100394 -0.0323874 0.0388807 0.0611481 -0.134843 0.103787 -0.0341697 0.0501351 0.0963825 -0.0550893 -0.0509854 -0.00582625 -0.152867 0.00534369 -0.0302509 -0.0300959 -0.0556646 -0.0811522 -0.0688677 0.140299 0.0224412 0.0286935 0.0662322 -0.0785815 0.0559501 0.108446 -0.0242387 0.015329
here -0.0949862 0.0425265 -0.0990993 -0.0375365 0.063315 0.0812722 0.0528713 -0.0890914 -0.00828565 -0.0822388 -0.0403593 -0.0363713 0.0793307 -0.0244789 0.06021 -0.0756048 0.0691014 0.00859 -0.020775 0.0306134 -0.0265145 0.0205564 -0.00998133 -0.13798 0.000221085 -0.025175 -0.053307 0.00347743 0.112037 0.0315617 -0.120728 0.0780165 -0.0698919 -0.0529651 -0.00733725 0.0467447 0.0500826 0.136443 0.07312 0.101496 -0.0232752 0.00649016 -0.0127378 0.0753098 -0.0110092 0.043727 -0.00121439 -0.039677 -0.0374461 0.101753 0.0323479 0.082279 0.0704463 -0.0549128 0.00872558 -0.0446911 -0.0064455 0.131338 0.0863531 0.0172347 -0.107584 -0.0465544 0.0531528 -0.0236053 -0.0290131 0.0225308 0.0116557 -0.0834225 0.126899 0.0606861 -0.123708 0.0438129 -0.155929 0.0368086 0.040541 -0.0369994 0.0437543 0.0636031 0.0210039 -0.00210251 0.07856 0.00734443 0.0480732 0.0381298 0.0480607 -0.047918 0.0212557 -0.0033035 -0.123949 -0.0243298 -0.0744097 -0.0818493 0.0317074 0.0258145 -0.0591853 -0.0124156 0.031943 -0.0257824 0.120889 0.0478623
let 0.0107457 -0.0983392 -0.0309525 0.0685693 0.00928568 -0.0132141 -0.0374378 0.074688 -0.0230763 0.0802656 -0.109451 0.0275653 -0.0812968 0.0708036 0.048189 0.0944338 -0.064189 0.0462993 -0.0264527 -0.00329171 0.106523 -0.00908067 -0.0487428 0.0206424 -0.0250195 -0.0385705 -0.0148749 0.0675742 -0.0255916 -0.0526967 -0.0460225 -0.0845366 -0.0798332 0.0414737 0.0586505 -0.0242422 0.0440878 0.0192984 -0.0416942 -0.0185613 0.029028 -0.0622979 0.0219276 -0.0819876 0.0857658 0.0402205 0.0296846 0.0776859 0.0929916 0.0144709 -0.0160955 0.0312011 0.0151159 0.0731821 0.0132267 -0.058536 0.0738136 0.0668136 0.0403101 -0.0734325 0.120392 -0.0223636 0.0770443 0.0156577 0.0196988 0.0506605 -0.0383209 0.0330423 0.0618785 -0.0963132 0.114964 -0.0546236 0.0259428 0.0263595 0.0425269 0.0301493 0.0705786 -0.088401 -0.0389046 0.0251436 0.00632599 -0.0289949 0.0159648 0.11517 0.0628025 -0.0351259 -0.0211177 -0.063732 -0.00640801 -0.0961419 0.0361479 0.109931 -0.0718002 -0.0632271 0.0613074 0.0597633 0.0306171 -0.0285874 -0.121432 0.00262748
here -0.0455456 0.0801614 -0.00891042 -0.00145921 -0.0640583 0.0486708 -0.0588986 -0.0354025 -0.0923516 0.0383874 0.0638565 -0.0314575 -0.046266 0.0684559 0.0559913 -0.0141178 -0.0156661 0.0822462 0.0671395 0.0328595 0.00825801 -0.0124862 -0.0597181 0.0644637 -0.0427753 0.0303112 0.00992678 -0.0201226 0.013774 -0.0263311 0.0535647 0.0720367 0.030264 -0.0295568 -0.0478633 0.0383548 -0.0321713 0.0404685 0.069462 -0.0710052 -0.0702034 -0.013368 -0.0281731 -0.045845 0.0526398 -0.0108945 -0.054444 -0.0431191 -0.036311 0.0562698 -0.0780307 0.0641192 -0.019282 0.0201638 0.0681731 0.0560849 0.00790398 -0.0121798 0.0555917 0.039886 -0.00650584 0.0952104 -0.0440894 0.0242823 -0.0718629 0.0469784 0.0722994 0.0214372 0.0313244 -0.0844712 -0.090711 -0.0314507 0.00264373 -0.0845265 0.0407891 -0.0586842 -0.0169179 -0.0764706 0.0195475 -0.0574619 -0.0949697 -0.0487664 -0.0724075 -0.0587735 -0.0121286 -0.0321609 -0.0812854 -0.0330907 -0.0767907 -0.0675503 0.0152052 0.0563737 0.00705927 0.0492942 -0.04998 0.0386509 -0.00066397 -0.0384297 0.0503558 -0.0735751
along 0.10234 0.0179214 -0.0668046 -0.0770523 -0.0911291 0.0224852 -0.0175102 0.0375776 -0.0961655 0.0291644 -0.0576974 0.00608796 0.0322325 -0.00966316 -0.0303491 0.00496881 -0.0573224 -0.0337712 -0.0368735 -0.00909014 0.0370197 0.00578526 -0.0499216 -0.0306494 -0.0325129 0.0475968 0.0336556 0.0645605 0.104045 0.00930562 -0.0171547 -0.00346925 0.0132559 0.0733901 0.0659432 0.0119467 -0.0103913 -0.0595607 0.0604223 0.0528546 -0.0955336 -0.0720108 -0.0538707 -0.0281256 0.0320607 -0.0581751 -0.0331249 0.0762465 0.0673968 -0.0718539 -0.0837355 -0.00965569 -0.0612954 0.0394612 0.00819882 -0.0357069 -0.0680974 -0.00389762 0.0977549 0.0633587 -0.0419761 -0.074254 0.014354 0.0774239 -0.0135391 -0.000396086 0.0877357 0.0141359 0.0337939 -0.0158156 -0.0779637 0.00210059 0.0473505 0.0246274 -0.0108646 -0.0465709 -0.0667628 0.0343108 0.0289511 0.0582918 0.107386 -0.0179903 0.0805424 -0.0632431 -0.0351017 -0.112107 -0.069439 0.0639208 -0.0401491 -0.108944 -0.0207207 0.0984206 0.00342839 -0.0525051 -0.069471 -0.086138 0.023508 0.0899521 -0.0793108 -0.0767404
fifteen -0.0188688 0.0725975 0.000303778 -0.0137116 -0.0434651 -0.113308 -0.0790355 -0.0555741 -0.0120219 0.0476991 -0.000474992 0.0684847 0.0111259 0.0034336 -0.0763843 -0.0149896 -0.0951769 0.0354103 -0.0525741 0.0634751 0.00710873 -0.0703723 -0.0740906 0.0579825 0.108805 0.00185287 0.104222 -0.0174666 -0.0708232 0.00816455 -0.10816 0.0351765 0.111152 -0.0410926 -0.0135949 -0.0150601 -0.103537 0.0723773 0.0119485 0.0139544 0.0531614 0.049041 -0.0068913 0.0329999 0.0335484 -0.043303 -0.0142435 -0.0226619 -0.115189 0.0342618 -0.058747 -0.0441809 0.0892098 0.00989711 0.010212 0.0746359 0.026492 -0.0470999 0.0100324 -0.030453 0.0810267 -0.0848744 0.00196539 0.0751859 0.0243777 -0.049477 -0.0385514 -0.120186 0.101157 0.00839088 -0.0887552 0.0507904 0.0133054 -0.0962676 0.0455713 -0.109547 -0.0306411 0.0203006 0.0188973 0.0126372 0.0604556 0.0637494 0.0754147 0.0254877 -0.0523341 0.0664243 -0.0513978 0.0458874 0.0712511 -0.0106522 0.0377604 0.0274655 -0.101096 0.023698 -0.0570382 0.0771534 0.0886471 -0.0554446 0.0163772 -0.0369102
dry 0.0178035 0.0374445 -0.0795545 0.0679345 0.00436711 -0.0420628 -0.0252944 -0.0854266 -0.0692073 -0.0693112 -0.0704802 -0.0256699 -0.0744934 -0.0710486 0.00581975 0.0453858 -0.138188 -0.0327513 -0.00597686 -0.0753023 0.0224279 -0.130076 0.00941748 0.0148403 -0.00670124 0.03398 0.134842 0.118443 0.06472 -0.0306423 0.0965518 -0.0372657 -0.0502436 0.0266518 -0.00275155 0.0264961 -0.0586231 0.0115221 -0.0317121 -0.0605416 -0.0384381 -0.121746 -0.0159571 -0.0840052 -0.0992645 0.10387 0.0500998 -0.0229353 0.0337901 -0.021202 0.0720952 -0.107628 -0.0442591 -0.0770113 0.0532641 -0.00845932 -0.0065039 0.0920829 0.0601067 0.0130514 -0.029228 -0.0545336 0.0591029 0.0458599 0.0169678 0.0346067 0.0881043 -0.0212987 0.00904233 -0.0166454 -0.0832592 0.0291376 0.0167076 -0.0641718 -0.0447132 -0.0599768 -0.0445639 -0.0607269 0.0378756 0.0947454 -0.00441002 -0.0634718 -0.00306717 0.0525714 -0.0579697 0.0277695 0.0562647 0.0280999 0.131138 -0.125638 0.0787238 0.0873468 -0.0741823 -0.018397 -0.0154278 0.012262 -0.00179049 -0.0907381 -0.025304 -0.126402
great -0.0511971 -0.0378047 0.00660899 -0.0235393 -0.0410502 -0.0411888 0.0747057 -0.0699317 -0.0140017 0.0812048 0.077556 0.0135916 -0.0141077 0.0308069 0.0445397 0.0309558 0.0734988 0.0255281 -0.0436892 0.0697816 -0.0247915 0.078467 -0.0080621 0.0340937 -0.0712994 -0.0118587 0.0984519 -0.0658969 -0.0166317 0.0486676 -0.0215911 -0.0503179 -0.0221741 -0.0406359 -0.0571845 -0.0267979 -0.0499628 -0.0278829 -0.0595486 0.051423 0.0467091 -0.0110073 -0.0463114 0.0280455 -0.0514174 -0.0837731 0.0449924 0.112095 -0.0841009 0.0219479 0.0250543 -0.0117522 0.0111103 -0.00457783 -0.0558581 0.0378249 -0.00239744 0.0245129 -0.028707 -0.0249197 -0.0447774 -0.0797642 0.0362186 0.100153 -0.0496265 -0.00963446 0.00559977 0.0673664 -0.0497997 -0.0513899 0.00337442 -0.0250156 0.0622949 -0.00697696 -0.0835414 0.00443632 0.0458441 0.039513 -0.109147 -0.0802149 -0.0654142 0.0550196 -0.0598721 -0.0950333 -0.00746105 0.0151893 0.0547517 0.0899845 0.0896773 -0.0752826 -0.038915 -0.0839741 -0.0888122 0.00900956 0.00192108 -0.10072 0.0132367 0.0930789 0.0136757 0.0670406
leaves 0.0286444 -0.0114837 -0.0333325 0.0851885 0.0169868 -0.0122722 0.0619333 -0.0537473 -0.0403882 -0.0132896 -0.0921572 -0.0723727 0.00830348 -0.0764855 0.082721 0.0429198 -0.103815 0.054846 -0.0795478 -0.127111 -0.0166067 0.015912 -0.0549762 -0.0344979 -0.0101046 -0.0794232 0.106517 0.0139178 -0.082069 -0.0561859 0.0155985 0.019691 -0.0370999 -0.0725947 -0.0519841 -0.044651 -0.106858 -0.105563 0.145421 -0.0560742 -0.1084 0.0144698 0.130122 -0.120063 -0.0287572 -0.00720828 -0.0663095 0.0453743 0.0370781 0.020674 0.10147 0.0237187 -0.0494861 -0.0373879 0.0223165 0.036583 0.0295729 0.0933655 -0.0273731 0.00331248 -0.112512 -0.111836 -0.0391579 -0.00547136 0.0137177 0.0489276 0.0700578 -0.0891827 0.0434826 -0.117169 -0.00221667 -0.0680574 -0.025253 0.0427299 0.00314408 0.0273686 0.0534662 -0.0718545 -0.0981949 0.0520645 0.0911515 0.0657127 0.00882142 -0.0571678 -0.103008 0.0019185 -0.0429326 0.0186878 -0.0503006 -0.0723781 -0.0259562 0.0636586 -0.142338 -0.0703848 -0.0428601 -0.0442107 -0.067962 -0.0565064 -0.0324692 -0.0297366
larger 0.0131851 -0.133229 0.0959995 -0.0863753 0.0727348 0.08005 0.0627622 -0.0661843 0.0141379 0.0258695 -0.0533741 0.0149515 -0.00418346 0.0521345 0.0156673 0.0985383 -0.037907 -0.00227786 0.067579 0.0821642 0.0148812 0.026348 -0.140824 -0.00237479 0.0596049 0.0655206 -0.0266118 -0.088394 -0.0188285 -0.0131845 -0.0604046 0.0301903 0.058776 -0.0222786 -0.035137 0.0484171 0.0236651 -0.0821954 -0.0327569 0.0158694 -0.0602002 0.0625747 -0.0320076 -0.0325679 0.0305864 -0.0227771 0.00953136 0.0487824 -0.118302 -0.011937 -0.0292978 -0.0124667 -0.0511465 0.0670969 0.0795053 0.0329205 0.0647305 -0.0309538 -0.11887 -0.0488236 -0.0118329 0.077014 -0.0608165 0.00085254 -0.0531721 -0.00489341 0.0321273 -0.0409126 0.0966274 -0.0695869 -0.00618947 0.0587935 -0.116902 -0.0599084 0.0876137 -0.0796564 0.0482802 -0.0939685 -0.046475 0.0089476 -0.0142627 -0.057299 -0.033726 -0.0211274 -0.0593908 0.0851287 0.0282867 -0.0221202 -0.0393802 -0.0748979 0.0267952 0.0833277 0.0868044 0.0874064 0.00844245 -0.0293558 0.00601885 0.0893282 0.0803917 -0.028452
when -0.00840686 0.0389798 -0.0482469 -0.0241181 -0.00935819 -0.0465133 0.0673482 -0.00972127 0.0307535 0.0659042 -0.0228683 0.000915732 0.0200921 -0.0126296 0.0560336 -0.0400255 -0.0498684 0.0555529 -0.0649268 -0.0562316 -0.0740769 0.0505268 -0.055078 0.0168032 -0.100722 0.0824129 -0.0545683 0.0610055 -0.0719429 -0.00650078 0.0954345 -0.0980977 -0.0545255 -0.0688181 -0.0164583 0.085737 0.0512815 0.0275412 -0.0164146 0.0943218 0.0235303 0.0200463 0.0634015 -0.00517308 -0.0114473 0.060584 -0.0703265 0.0546986 -0.035482 0.0113964 0.00329379 -0.09541 -0.0109269 0.0424687 -0.0292181 -0.031939 0.00782891 0.0200242 -0.0480706 0.0772929 -0.0667708 0.0524567 0.0124619 -0.0466937 0.0656312 -0.018837 -0.0707997 -0.0363005 0.0939541 0.0104387 -0.0268649 0.00439659 -0.0590286 -0.0229641 0.0830725 0.0281127 -0.0758192 -0.0463568 -0.0241455 0.0965902 -0.0533216 -0.0831873 0.0506937 0.0235166 -0.0404788 0.000534307 -0.073065 0.037639 0.0634063 -0.0978147 -0.0739721 -0.0519071 -0.0347796 -0.0158323 0.0687315 -0.0839921 0.0162228 -0.0417301 -0.0318255 -0.0353856
usually -0.0208771 0.0254813 0.0785656 0.011496 -0.0230425 0.0563329 0.0118376 -0.0454854 -0.0783256 -0.0390654 -0.114492 0.0375347 0.0573779 -0.0045393 0.0928898 -0.0355143 -0.0272114 -0.0438831 -0.123659 0.043887 -0.076453 -0.0239518 -0.017278 0.0441656 -0.0621486 0.0137936 0.0792832 0.115391 -0.0195558 0.0156218 0.0873227 -0.00132353 0.0241397 0.109851 0.0666212 0.0122311 -0.0429598 0.025115 0.109751 -0.0297009 -0.0327004 0.0314757 -0.00179219 0.0117846 -0.0939541 0.0869697 0.071004 0.102599 -0.00354421 -0.109946 0.00479015 0.0518031 -0.0482569 -0.0899179 -0.0609347 -0.0666763 -0.104312 0.018108 -0.0393364 -0.0199019 -0.0632729 0.00815364 -0.0467467 0.0142373 0.0301581 -0.0999941 0.0295305 -0.0298046 -0.0681984 0.0743449 0.0970719 -0.0047062 0.0372827 0.00199004 -0.00906135 -0.0245706 -0.0818317 0.00407617 -0.0440013 -0.0435947 0.110026 -0.119002 0.0553503 -0.0125575 -0.129297 0.0144017 0.0871935 0.0109763 0.0706271 0.038881 -0.101159 0.0930514 -0.105997 -0.0764692 -0.05517 -0.102161 -0.116908 -0.082805 0.121723 -0.0567452
ventured 0.00794678 -0.0366492 -0.0157674 -0.0656663 0.043189 -0.00516364 0.0643502 -0.0634688 0.0794689 0.0956097 -0.0145906 -0.030651 -0.0252357 0.0335092 0.0452734 0.0119134 0.0482843 0.041773 -0.0791474 -0.103493 0.0643477 0.00632425 0.08912 0.0359393 -0.0946065 0.0306513 -0.0626428 -0.0896245 -0.0730916 0.0971599 0.0230887 0.0691703 0.0561278 0.00401098 -0.052689 -0.0308304 0.0126524 -0.000452734 -0.0292949 -0.0748286 -0.0552978 -0.083625 -0.0592788 0.0390805 0.0329946 0.015949 -0.0657918 0.0726459 0.00730319 0.0243452 -0.0475056 0.0677833 -0.0452176 0.054888 -0.0996684 0.0338917 0.0390062 0.00652009 0.105984 -0.0162132 -0.0750108 -0.0168291 0.0595996 -0.0730016 -0.0775997 -0.103092 0.0127034 0.0438849 -0.087054 0.0853329 -0.0418036 -0.0675299 0.0866292 0.0758628 -0.0308132 -0.0501196 0.043806 -0.0542209 0.0508958 -0.0321542 -0.0730339 0.00127945 0.0125941 0.014945 0.00671269 -0.0408649 0.0057412 -0.0218224 0.00353644 -0.0396814 0.0563529 -0.0999809 -0.0905581 0.0823332 0.0481111 -0.0969938 0.102133 0.0213175 0.0507527 0.0133442
golden 0.102136 -0.0844815 -0.0760885 0.0323785 0.0114675 -0.0282954 0.0609437 -0.0935951 0.0253322 -0.0719903 -0.105028 -0.0284598 -0.0909196 0.0589931 0.000544041 0.00482986 -0.0152678 -0.132111 -0.038077 -0.0202458 -0.0103383 -0.119043 -0.0657257 -0.000720554 -0.0314235 0.0199221 0.0715434 0.10995 -0.0336384 0.085474 0.0544673 0.0491309 0.0914896 -0.0397737 0.0154458 0.0113096 0.0186038 -0.010448 -0.0675992 0.0414267 -0.00141399 -0.137307 -0.0646484 -0.0262584 -0.0403896 -0.0269748 0.00229809 0.0718982 0.0663637 -0.0243438 0.0729594 0.0631131 0.0475117 -0.0789648 -0.101208 -0.105094 -0.0763169 -0.0774435 0.0108587 -0.0195763 0.102163 0.020542 0.118093 0.104049 -0.057184 0.00250301 0.0448585 -0.0281255 -0.00745256 0.0253682 -0.140999 0.0333746 -0.0187995 0.0511973 -0.105701 0.026107 -0.0133387 -0.101442 0.0657963 0.0481884 -0.00962066 0.0967666 -0.00923754 0.041139 -0.0625697 -0.0914893 0.131586 -0.123574 -0.0544316 0.0180838 -0.0132528 -0.0404691 -0.0110661 -0.107557 -0.00884299 -0.072046 -0.0583797 -0.0711174 0.0944457 -0.0960148
apple 0.0266798 -0.00231649 -0.0997097 -0.0240486 0.00246636 -0.107855 -0.0355614 0.0649044 0.0263199 0.0450148 0.0237057 0.00124178 -0.107453 0.0334507 0.0120418 0.0508277 -0.0310845 0.0599959 -0.067499 -0.0362359 0.0840289 -0.0630604 -0.00333513 -0.0353719 -0.00607833 -0.0586206 0.0298388 0.00407946 -0.00467761 0.0567103 0.00902276 -0.0392955 -0.00259237 0.0816122 0.0213409 -0.0470891 0.0343757 0.0184901 -0.0141375 -0.0524042 -0.102116 -0.0740442 -0.0351161 0.044377 -0.0861769 -0.0315506 -0.0544967 0.0518798 0.0595581 -0.0561048 -0.0292495 -0.0746255 -0.0960538 0.0588816 -0.0561547 -0.0631913 -0.00919142 -0.00301724 -0.017857 0.0113037 -0.0284045 -0.0409876 0.0667033 0.0543938 -0.112841 0.0330679 0.106085 0.0625565 0.0575668 0.00178826 0.0675516 -0.00290591 0.0118607 0.0383652 -0.0492386 -0.0338891 -0.0345688 -0.0329414 -0.0182489 0.00559708 0.108003 0.0636945 0.128821 0.0511818 -0.0877975 -0.112278 0.0796534 0.00516131 -0.0597064 -0.02706 -0.0399647 -0.0266746 -0.00114498 -0.0826627 -0.048132 -0.0123683 0.0948288 -0.00544341 -0.0257755 0.0243077
suddenly -0.165524 0.0576058 -0.142767 0.0386685 0.0662379 0.0183275 -0.176468 -0.080955 -0.0241019 -0.140289 0.0619336 -0.166484 -0.15927 -0.0730457 -0.117804 0.141979 -0.138902 0.00173661 -0.0798443 0.0584597 -0.0255087 -0.0689536 -0.0817223 -0.0371148 -0.105885 -0.0184891 0.0288503 0.133734 -0.0740541 0.0639599 0.0265523 0.109284 0.130363 -0.0539565 -0.0560263 -0.0765494 -0.0370194 -0.178579 0.0226707 0.00956247 -0.124264 -0.0480811 -0.103203 0.0784541 -0.103237 0.0617904 0.0448948 0.00874002 0.0906714 -0.0153679 -0.0407961 -0.0849876 0.102104 0.0679081 -0.0250295 -0.147908 0.0619506 -0.0683045 -0.110459 0.160133 0.193906 0.135256 0.127374 -0.0885206 -0.111847 0.161945 -0.0883043 -0.0812355 -0.0770734 0.174291 0.0303882 -0.127819 -0.0982682 0.0699155 0.0480048 0.0852937 -0.0314146 -0.0413552 -0.0265957 -0.139517 -0.135549 0.0176012 0.00365504 0.0708642 0.0270945 -0.00309991 0.0170129 -0.0449842 0.0716374 -0.0992613 0.0374508 -0.0263731 -0.00819234 -0.0327948 -0.0351573 0.100145 0.0538778 0.151932 0.0866841 0.0737408
manage -0.032374 -0.0769318 0.0453757 -0.0098336 0.0608875 0.00406381 0.0762427 -0.0247002 -0.00761744 -0.0313354 0.0446826 -0.0360817 0.0589762 -0.00663933 0.0863948 0.0615542 0.0697672 -0.00251261 -0.0231665 -0.0852714 -0.0537837 -0.110819 0.0896769 0.0192733 0.0452973 0.036032 -0.000457774 -0.078559 -0.113667 0.0627871 -0.0413749 -0.00780179 0.0477979 0.033233 -0.0105496 0.02441 -0.0245851 0.0568523 0.0516139 -0.05261 -0.0525305 0.0135771 0.0367973 -0.0307105 0.0920359 -0.0463939 -0.0637505 0.102833 0.0729769 0.078417 0.0803066 0.106545 0.0689652 -0.00115294 -0.0576116 0.00218778 0.0804137 -0.0828627 0.0765833 -0.0221879 -0.00915093 -0.0184964 -0.0287962 0.01057 -0.0535713 -0.0929345 0.0317334 -0.0779209 -0.0150853 -0.0493462 -0.0354475 0.038742 -0.0150988 -0.0417766 0.051572 0.0323141 0.107021 0.0352868 -0.030431 -0.0162702 -0.0825869 -0.104776 -0.0717884 0.0340854 0.0748011 0.0698372 0.0891885 0.0307927 -0.0347153 -0.0958356 0.00292364 0.0983137 0.0918596 -0.0264903 0.0331378 0.0226101 -0.0438436 0.0870151 -0.0530969 -0.0483351
marked 0.129999 0.0785173 0.0797677 0.0874222 0.00501219 0.155632 0.0117098 0.0149951 -0.0783408 -0.122223 -0.0631021 0.0229371 -0.0465643 -0.0101176 -0.00377326 0.0672795 -0.0736754 -0.0261295 0.0393597 -0.0324514 -0.0975957 0.0581453 -0.0903351 -0.0963196 -0.0137042 0.0138771 -0.120895 0.00196847 -0.0468496 0.0477897 -0.0265629 0.0526034 0.0846613 0.0539648 -0.015439 -0.0811632 0.0264807 -0.0219872 -0.0519263 0.0665243 0.0453798 0.138542 -0.106692 -0.135539 -0.0112969 0.108408 0.00180891 0.0459123 -0.076171 -0.0199453 0.0918632 0.0284499 0.0675878 -0.204184 -0.0663074 -0.10117 0.00212594 0.0286212 -0.0855928 -0.120336 -0.0947884 0.105915 -0.0853363 -0.111063 -0.0563048 0.114881 -0.0076769 0.118938 -0.0101443 0.00880323 0.0295833 0.0438844 0.145476 -0.112198 -0.0351352 0.086967 0.0141108 -0.0998377 -0.0854774 0.0206057 -0.0752456 0.0320415 -0.0389776 -0.00983334 -0.0396001 0.0103178 0.00858652 -0.0126468 -0.0284139 -0.0580888 0.0496909 -0.0282173 0.045357 -0.160031 0.0863236 0.013613 -0.0216202 -0.0135675 -0.0541935 -0.00909857
watch 0.0264903 -0.0161746 -0.0409523 -0.0571139 0.00111592 -0.0626385 -0.0793592 0.00623423 0.0932103 -0.0450744 -0.0313294 0.0665624 0.0773469 0.0911013 -0.062457 0.0705938 -0.0151734 -0.0798764 0.0726363 0.0981596 0.0836963 0.0686739 -0.104265 -0.0366231 -0.0851275 0.0573451 -0.0805966 0.00913346 -0.0695497 -0.0103301 0.0467393 -0.0120306 -0.0376869 0.057198 -0.0418166 0.0498705 -0.0853916 -0.00947503 0.0276576 -0.0344203 -0.0739281 -0.00518903 0.0307004 0.0294514 -0.0304686 0.0203742 -0.0437836 -0.0127565 -0.0240027 0.000572662 -0.0641579 -0.0710586 0.0892761 -0.0591984 0.0826877 -0.0208654 0.0587858 -0.039411 0.0545284 -0.0518373 -0.0574698 0.0325544 0.000741383 0.0231879 -0.0464512 -0.0147718 -0.0800296 -0.0403545 -0.0594353 -0.0546079 0.0516214 -0.0591789 0.0526781 -0.0140452 0.0452677 0.0471691 0.0670129 0.0221237 -0.00119176 -0.0849971 0.0884856 -0.063375 -0.070039 -0.0296408 0.0290258 0.0152791 0.00508139 -0.0846908 0.067872 0.0179322 -0.106329 0.044473 -0.0750626 0.0426512 0.0180974 0.0554658 0.0809444 0.0854408 0.00451546 0.0226358
put 0.0456422 -0.0777903 -0.0581611 0.127861 -0.0285446 0.0557285 0.117151 0.0163297 -0.0356026 -0.00724307 -0.018679 0.126873 -0.00112285 -0.0660508 0.138912 0.0873038 0.071348 -0.0713715 -0.00744719 -0.0979536 -0.179346 0.0667163 0.00470652 0.0827631 -0.0442571 -0.0950663 -0.100925 0.158188 -0.029092 0.0336062 -0.0510849 -0.0855544 -0.0659151 0.0250348 0.121588 0.158772 0.103988 -0.067075 0.00285864 -0.0800534 -0.0560523 0.14095 0.0451953 -0.130019 -0.0749132 -0.0113461 0.0503985 0.0687269 -0.0480085 -0.0378736 0.125613 -0.0848485 0.00733686 -0.00362563 -0.0409647 -0.13751 0.0415141 0.0870251 0.172228 0.0581395 -0.07158 0.00659849 0.147031 0.0759605 -0.00813451 -0.165511 0.164989 0.0369248 -0.0331972 0.070646 0.0326651 -0.119259 0.0182322 0.0333262 -0.198825 0.0193989 -0.150654 0.0601223 -0.0207711 -0.0161476 -0.00748 -0.014306 -0.0833452 -0.0501037 -0.150145 0.0260077 0.15839 -0.0603181 0.0302946 -0.0891037 -0.0594747 -0.0633356 -0.172623 -0.00698762 0.0258015 -0.105087 -0.069321 0.131283 0.14499 -0.155795
ve -0.0951897 0.0516599 -0.0106877 -0.0222092 0.0597342 0.00531212 0.0698241 0.0830399 -0.0881226 0.0052749 0.0600633 -0.00752693 -0.122636 0.0532683 0.0388475 0.00032349 0.0715859 -0.00765446 0.0949412 0.065167 0.022482 -0.0336157 0.118529 0.0326969 0.106426 0.12301 0.155303 0.0283479 -0.00425715 0.0175672 0.0360511 -0.0083721 0.0156964 0.00911084 0.0486307 -0.0964782 -0.0149814 0.0117524 -0.0201353 -0.0640281 -0.00131034 -0.0315276 -0.00152467 0.0540579 0.0705005 0.0417571 0.0194718 -0.0391193 0.129655 -0.0397234 -0.138466 -0.172196 0.0962185 0.139447 0.112757 -0.075124 -0.0051337 0.0555197 0.0921114 0.0727495 0.169365 -0.0079447 -0.00543135 0.022035 0.068405 0.105038 0.100313 0.0919282 0.0966261 -0.0119862 -0.0208664 0.0749895 0.0734375 -0.0143899 -0.0307044 0.0417329 0.10833 0.00478443 -0.0222031 -0.144536 0.100439 0.0816392 0.0802531 -0.147524 -0.0206494 0.00498387 0.0150661 0.0872005 -0.0562256 0.0713519 0.153487 -0.0254222 -0.0160729 -0.0766304 0.00443714 0.0879971 0.0256606 -0.0679155 0.00178835 0.0488852
use 0.142189 0.0481269 0.0431254 -0.107051 0.00544853 0.0423017 -0.056197 0.131297 0.112854 0.14765 0.0824719 0.00680859 0.0300671 -0.0113487 -0.0139511 -0.142422 0.105873 -0.190902 0.151333 0.0344051 0.200783 0.0684526 -0.0403564 -0.068152 0.10354 0.1417 -0.147162 -0.0651129 -0.0711005 -0.0531409 0.110607 -0.054422 0.0502542 0.0215579 -0.0135028 -0.0838482 -0.103606 -0.0360055 0.0341884 0.0756702 0.147303 0.0125834 0.101109 -0.0102556 0.0990466 -0.0327842 -0.0511265 0.0448606 0.0708373 0.113623 0.149339 0.0704444 -0.0745653 -0.0473524 -0.0611741 0.0783286 -0.0498128 0.0144557 -0.11121 0.0838516 -0.134999 -0.0808747 -0.129755 0.0574451 -0.0468327 -0.140551 0.0471216 -0.166011 -0.116612 -0.127177 -0.0977943 0.183294 -0.0715053 0.0339415 -0.0499484 -0.00921314 -0.10638 0.196611 0.070939 0.0067245 -0.112805 0.0163671 0.0545196 0.229353 0.086021 -0.0894738 0.0658923 -0.182234 -0.00453804 0.0462184 0.0932064 0.11323 0.0204065 0.00349884 0.0616442 0.0894878 -0.0586022 -0.053715 -0.0649781 -0.00746298
or 0.0672097 -0.131001 -0.188695 0.134525 0.258825 -0.0594411 -0.0307358 0.0907442 0.138289 0.0196976 -0.0599381 -0.135142 -0.0528001 -0.0351367 -0.113318 0.00593676 0.100162 -0.277072 -0.117395 0.124864 0.181616 -0.228459 -0.148229 0.0961522 -0.0993961 0.0973012 0.0699964 0.0905982 -0.190448 0.104584 -0.0713846 -0.0974593 0.108549 0.159137 -0.148997 -0.00740987 0.00580124 -0.062248 0.0653753 -0.182294 -0.00595483 0.0992553 0.044357 -0.0716073 0.0742046 -0.119177 0.0965078 0.0339199 0.111245 -0.00227621 -0.0388448 -0.164949 -0.0694289 -0.0776371 -0.0472561 -0.095207 -0.0219932 -0.121032 -0.104933 0.0751681 0.0180832 0.0690528 0.130324 0.181168 -0.0805953 -0.14325 0.0421459 -0.0287817 0.0235162 0.0836713 0.164913 -0.145008 0.0548017 -0.145223 0.0369074 0.025529 -0.049772 0.148124 -0.144301 -0.000234505 0.0341368 0.170947 0.0235056 0.0336435 -0.0563149 0.0295648 0.0647855 -0.187705 0.0968086 -0.0811694 0.223405 0.188147 -0.143288 0.0126676 0.0824389 0.049107 0.106119 0.0196576 -0.00274096 -0.0190283
from 0.00688758 -0.104129 0.116021 0.104708 -0.023549 0.0532718 -0.0362641 0.0480345 0.101461 0.0173537 -0.00403683 0.0252725 0.0747188 -0.0347672 -0.101122 0.0542246 -0.0258225 -0.0889945 -0.0622481 -0.0334579 0.0141191 -0.0428466 -0.157782 -0.0660322 -0.140087 -0.0671939 0.0376129 0.0737938 -0.0890463 0.119729 0.0278629 -0.00458127 0.0284957 0.157265 0.126861 0.170335 -0.0780069 0.0411454 0.0701086 -0.160728 -0.00500489 -0.0381553 0.0670262 -0.0535285 0.00945639 0.0262486 -0.135479 -0.0422374 -0.0453548 -0.095443 -0.0021624 -0.0192763 0.00762473 -0.132179 -0.135842 0.0556911 0.0936617 0.0696672 -0.0245144 0.034625 0.122507 -0.0614177 -0.0975891 -0.145305 0.0396331 0.0564882 0.00663192 -0.115783 0.0250564 0.0909131 0.130408 0.0952386 -0.103463 0.0719287 0.0342684 0.0575618 -0.12011 -0.0341636 -0.0177182 -0.0388691 -0.0795578 0.0718714 0.0786803 0.144467 -0.0410892 0.0142294 0.117895 -0.0123493 0.0684504 -0.119314 -0.0248924 0.0126672 0.0330473 -0.096012 -0.0276589 0.0537364 -0.101157 0.000723095 0.0328155 -0.00460275
spoke 0.015395 -0.0471335 -0.0875909 0.0723277 -0.0320291 0.0555984 -0.0388366 0.0804433 -0.0290351 0.0481444 -0.00205316 -0.0669876 -0.0269414 -0.0581899 -0.112567 0.089208 -0.0205319 -0.0696307 0.0184803 -0.0605105 -0.0924695 0.0456644 -0.094046 0.0857296 -0.102367 0.0177986 0.125221 0.0436625 -0.0337627 -0.044835 0.0460903 -0.00436012 -0.0778822 0.0388375 0.0129631 0.0721518 -0.0651288 -0.068613 -0.0378997 0.0135079 0.0370162 0.0791792 0.0417581 -0.0475575 0.0347855 -0.0828717 0.0913136 -0.00642646 -0.00188769 0.00995812 0.0639798 -0.0549927 0.0281608 0.119633 -0.0174532 -0.0873126 0.112339 -0.0122088 0.0685814 0.0868072 -0.0714733 -0.0398609 0.0230935 0.0233081 -0.0807327 0.0229347 0.0394387 0.0138515 -0.0620821 0.0292478 0.020228 0.00207592 -0.0102856 0.00765293 0.00464081 -0.0545821 -0.108382 0.0520784 -0.061446 -0.0559367 -0.0372879 -0.0424383 0.00156041 -0.049298 -0.067215 -0.0482481 0.00749936 -0.0415758 -0.0323777 -0.0532266 -0.0346663 -0.0792803 0.000478976 0.0177772 -0.093269 0.0227861 -0.0693548 0.0348831 0.0418288 -0.0433726
would 0.11007 0.0435607 -0.0330634 0.0648757 0.17959 -0.11912 -0.111733 0.0115526 0.262214 0.101921 -0.0359481 -0.104251 0.0821684 -0.219597 -0.0894539 0.00130659 -0.144629 -0.187509 -0.0588785 -0.133839 0.0159418 0.0575669 -0.0723747 -0.039945 0.000499547 0.0651551 -0.104899 0.0194661 -0.0320819 -0.0495456 0.0551265 -0.105986 0.129798 0.0788174 0.128699 -0.18391 -0.133581 -0.0628447 0.109256 0.193376 0.0150857 0.212657 0.00138499 0.0875571 -0.149975 -0.16221 0.0838253 0.130053 0.150811 -0.036796 -0.0155334 -0.18442 -0.046153 -0.134752 0.0305025 -0.0938349 -0.041261 -0.0112973 -0.0822762 0.0917441 0.0824403 -0.0842514 0.16667 -0.0181952 -0.00419865 0.192584 0.0526529 -0.000649171 -0.0755129 0.0863617 0.116898 -0.0682508 -0.137258 -0.158821 -0.0836691 0.0953127 0.0382265 0.262501 0.0360564 -0.116947 0.0844201 0.063566 -0.0179022 0.186821 -0.148359 0.0405143 -0.00976064 -0.130035 -0.0311319 -0.0653133 0.0738076 0.050764 0.136984 0.148688 -0.142832 0.0463129 0.00313628 -0.00879642 -0.120914 -0.0378708
several -0.0510859 -0.0834079 0.0623 -0.0217024 0.0178438 -0.00489725 -0.0743405 -0.00214621 0.0171203 -0.0171995 -0.0157493 -0.0364747 0.0216518 0.0830232 -0.0387151 -0.0404613 0.0574439 -0.0105269 -0.0271824 0.00628884 -0.00114584 0.00823774 -0.0136292 0.0832936 -0.033339 0.0354675 -0.0760864 -0.09307 0.00207512 0.0571109 0.0816537 0.0561247 0.0864969 0.00979966 0.00257737 -0.0863437 -0.0543112 -0.0639971 0.0432348 0.0107494 -0.0476672 0.0071312 -0.00706115 -0.00934367 -0.0917454 0.081397 -0.0776085 -0.0326334 0.0480734 0.0321224 0.0407637 0.0369811 0.0350663 -0.0558684 -0.0206303 -0.0614859 -0.10101 -0.0580951 -0.06571 0.0899635 -0.0469921 -0.0749517 0.0706516 -0.0583428 -0.0336766 -0.0643 -0.0812317 -0.0717083 -0.040012 0.0184811 -0.081096 -0.0469768 0.0667342 0.0873945 0.069241 0.0337736 -0.0644145 -0.0124952 -0.0466842 0.0715656 0.054743 0.0592615 0.0272399 -0.072149 0.0747936 -0.0120432 -0.0819682 -0.0426435 -0.0701004 -0.0596497 0.053311 0.0466167 0.0885612 -0.0961045 0.0816736 -0.0348646 -0.0115685 0.0506102 -0.0582206 -0.0420189
next -0.023579 -0.0777124 -0.0416519 0.0821288 -0.0461929 0.038642 0.0987055 0.045007 0.014235 -0.0113657 -0.02141 -0.0327131 -0.0901133 0.0804308 0.018955 0.123275 0.0018857 0.0682178 -0.0252292 0.0240197 -0.107548 0.0646435 0.0886847 -0.0575894 -0.045989 -0.0297644 0.0189741 0.00941043 0.0170183 -0.0250383 0.05077 0.0463424 -0.0605929 -0.0447453 0.0710198 -0.0702153 0.0649501 -0.0201032 -0.0594254 -0.0589785 -0.0809689 0.11456 0.0037101 0.0569187 -0.0260068 -0.0641105 0.0564706 0.0748902 0.0341875 -0.000682437 0.102115 0.0670094 0.0151556 -0.0656528 -0.0402809 -0.113955 -0.0534469 -0.0738038 0.0993238 0.0996595 0.0683249 -0.0816287 -0.00737428 -0.0189453 -0.00751309 -0.0296813 0.113592 0.0734076 -0.0821667 -0.0828556 0.0709744 -0.0797284 0.0472985 -0.0633304 -0.107669 0.103357 0.0120055 -0.00673639 0.0145559 -0.0283033 -0.0337646 0.0088519 -0.0414149 -0.029611 -0.0357205 0.00166107 -0.0191919 0.0381398 0.0986053 0.0133865 -0.0717908 0.0193972 -0.136051 0.0275252 -0.0624651 -0.0521445 -0.0473902 -0.056655 0.0625123 -0.0542458
few -0.0081716 -0.0663317 0.0262729 0.0175678 -0.0897936 0.0206568 0.0740754 0.0620483 0.0385948 0.0123514 -0.0496327 -0.00419379 0.026934 0.145851 0.113904 0.00305701 0.00141802 0.00313172 0.0327801 0.0161657 0.0017385 0.122918 0.0205086 -0.0058914 -0.0224712 -0.013641 0.0124871 -0.050474 -0.0360642 -0.0603373 -0.007226 -0.0427196 -0.051617 0.0553423 0.0541728 0.0193509 -0.0812894 -0.0524658 0.0261283 -0.099248 0.0571999 -0.0245752 0.114513 -0.0448292 -0.0334323 0.0424373 0.107104 0.00432726 -0.0552506 -0.0729103 0.0847563 0.0605383 -0.0363447 0.0295095 0.00477419 -0.00508512 -0.0993975 -0.0360603 0.00489903 -0.0189034 -0.0373837 -0.0572024 -0.010596 -0.0450083 -0.0750943 -0.0440216 -0.155835 0.00637721 0.0197683 -0.0473065 -0.0286062 -0.0520857 0.11391 -0.0284494 -0.0196817 0.0675663 0.0591983 -0.0375054 -0.110078 -0.00458799 -0.0667982 -0.0729238 0.0485025 0.0320172 -0.0217358 0.110847 -0.0318847 0.0112232 -0.0301272 -0.0173981 -0.141554 0.0014356 -0.0489967 0.0397865 0.0106902 0.0192408 -0.0722839 -0.00472048 -0.0688258 -0.0945228
overhead -0.0187572 0.0211819 0.0263114 0.037553 0.0550652 -0.0743953 -0.0228608 -0.00213363 0.0620149 0.0951368 0.0558172 0.091244 0.0488049 -0.0943842 -0.0955995 -0.00420082 0.0633211 0.0631177 0.0422768 0.0539933 0.0799178 -0.0683171 0.0279974 -0.0516056 0.0934415 0.0357494 0.0505269 0.0541556 0.131787 0.00677273 -0.0191543 -0.0257554 -0.000582591 0.0555066 -0.0203966 0.0304567 -0.0422418 0.0871746 -0.0591313 0.0361358 0.0248499 0.0844323 0.0491829 -0.0449888 0.0974108 0.0306577 -0.0506122 -0.0115115 -0.0197151 0.0201097 -0.117818 -0.0286595 -0.0384201 -0.0263555 0.0294613 0.047855 0.0280365 -0.045853 -0.0766161 0.056931 0.0652906 0.0355175 0.0233885 0.0758561 -0.0254296 0.0730591 -0.0894548 0.0209354 -0.0110692 -0.0621866 0.0517321 0.0400396 0.0804964 -0.0348515 -0.0252519 0.0368363 0.0750581 -0.0332426 0.0366032 -0.0466968 -0.0960366 -0.055053 0.0355334 0.0789511 0.00366065 -0.0186929 -0.00641278 -6.83189e-06 -0.00309369 0.0271415 -0.0657208 -0.0723966 0.115961 0.0664395 -0.0191771 -0.0409981 -0.0342323 -0.0385849 -0.0867068 0.0814425
wondering -0.0344961 0.0161123 0.0604242 0.0507991 -0.0106053 -0.0322021 -0.0591893 -0.00178968 -0.0325891 -0.0260425 0.0403603 0.0513779 -0.0984516 0.0944948 -0.0734392 0.0342802 -0.0438298 -0.0914303 -0.0790658 -0.0219436 -0.0455825 -0.120205 -0.00799725 0.0955536 -0.0631789 0.0509733 0.0464772 0.102537 -0.0261071 0.0109444 -0.00309526 -0.10968 0.049539 -0.0254065 0.0274159 0.0708993 0.0373655 -0.00254042 -0.0310867 0.00471915 0.00962024 -0.0560943 0.00732119 -0.0251142 -0.00780164 -0.053348 -0.0056712 -0.0152763 0.112513 -0.0197579 0.0378883 -0.0863366 -0.0875218 0.0106994 -0.0039078 -0.00430874 0.0447281 0.0536204 0.0128011 -0.0704004 -0.00181919 0.0371149 -0.0223187 -0.110219 -0.124974 -0.0973595 0.108736 0.0805075 -0.0153687 0.025943 0.0806183 0.0673563 -0.0915131 0.00489355 -0.0378985 0.0469867 -0.0822908 0.0434234 -0.000407186 0.0986984 0.0916918 0.0797203 0.0492786 -0.0162227 -0.0957827 -0.0232254 -0.0416725 -0.0744129 0.057676 -0.0453681 0.02954 0.0893357 -0.0591203 -0.0589035 0.0821649 -0.123573 -0.0509484 0.0176475 0.0522136 -0.0649259
lock -0.0442676 0.00953167 -0.0493105 -0.00575757 -0.0101739 -0.0536805 0.133361 -0.0426471 -0.0502756 0.0767915 0.0739475 0.0228044 -0.0489932 0.00911178 0.0239284 -0.0302165 0.0381763 -0.0465316 -0.127084 0.0340874 0.0649529 0.0152338 0.126982 -0.0338103 -0.134369 -0.0611723 0.0829437 0.0377071 -0.0766921 -0.0535295 -0.0128804 -0.041737 -0.131674 0.0153853 0.0436929 -0.0231063 0.091556 0.046887 0.12153 -0.0332213 -0.0582527 -0.142279 0.109043 -0.0444363 -0.114451 0.0800902 -0.0255791 -0.0328844 0.00141185 0.0243777 0.147326 0.00910013 0.0553043 0.08731 -0.125197 0.0525222 -0.0297088 0.0872233 0.0941078 -0.128897 -0.0066951 -0.0558518 0.0176873 0.011575 0.0709999 0.00958504 0.108228 0.0662947 -0.0920195 0.00160257 -0.100664 -0.0211527 -0.0616991 0.0686133 -0.0639538 0.0309196 -0.0250398 -0.0598718 -0.113577 0.0632624 -0.0691831 -0.0578935 -0.000928186 -0.0150531 0.0225817 -0.0709881 0.0889998 -0.02159 0.0400037 0.0464975 -0.0795795 -0.00103978 -0.129224 -0.0327592 0.0585936 0.0182844 -0.0909684 -0.0470258 0.00381169 -0.0254349
tell -0.0147863 -0.0314195 -0.04652 -0.0763867 0.0273133 -0.044105 -0.0599213 0.0312814 0.0887414 0.0873183 -0.094077 -0.0272738 0.0186073 0.043697 0.0417493 0.084046 0.0303108 -0.112458 -0.0647312 -0.023771 0.0692124 -0.0615183 -0.0574616 -0.065824 -0.040455 -0.00783117 0.0867155 0.099023 -0.0699139 -0.048662 -0.025623 -0.00462233 -0.0417014 0.0551099 -0.107115 -0.0421151 0.0631107 -0.00245332 0.0925683 -0.0683632 0.111638 -0.0631333 -0.028267 0.0292096 0.0642215 0.0446004 -0.0805764 -0.013607 -0.0457734 -0.0397156 0.0978693 0.0278992 -0.121621 -0.0382415 0.0095741 -0.0152388 0.0980233 -0.0363426 -0.0704033 0.023679 0.100284 -0.0462857 -0.00629984 -0.0120237 0.00846004 -0.104339 -0.0284852 0.0497909 0.0438462 0.0572133 0.0432444 -0.104072 -0.0631879 -0.00394089 0.0640408 -0.0505818 -0.0794846 -0.0358205 -0.079604 0.0798282 -0.0237351 0.0489676 -0.0539278 0.0886317 -0.0504409 -0.0216778 -0.0488634 -0.0745699 0.0520642 0.0293815 -0.049725 0.100429 0.0295637 -0.0563618 0.0821995 0.0409038 9.38205e-06 -0.0941242 0.0289192 -0.0850596
